0 3 7.4093e-06
0 4 7.23366e-05
0 7 0.00153458
0 8 0.339586
0 12 0.0932893
0 13 0.00886886
0 15 7.81683e-07
0 18 0.276826
0 20 4.13939e-05
0 21 2.45887e-05
0 23 4.45513e-06
0 24 0.000306063
0 25 9.31832e-06
0 26 0.020349
0 27 4.10947e-07
0 28 2.40471e-07
0 31 1.02352e-05
0 32 0.000863034
0 36 0.0667349
0 37 5.30756e-07
0 38 1.08226e-07
0 40 0.010287
0 41 1.97122e-05
0 48 0.00790429
0 50 1.09989e-06
0 52 0.120911
0 53 0.00272047
0 56 0.00285228
0 58 1.79072e-06
0 67 2.43867e-06
0 90 1.80972e-07
0 123 3.83023e-07
0 128 5.44936e-07
0 132 1.2039e-07
0 140 2.46393e-06
0 166 8.79295e-07
0 173 5.21413e-06
0 188 1.23242e-05
0 192 2.63765e-07
0 203 4.84397e-06
0 233 2.57655e-07
0 236 2.68464e-06
0 268 0.0239646
0 280 0.00657871
0 281 0.000139797
0 283 2.14524e-06
0 286 0.00017252
0 299 4.67853e-06
0 306 1.36035e-05
0 309 6.30893e-06
0 320 0.00767302
0 325 1.18537e-07
0 326 4.04133e-07
0 328 4.90426e-06
0 331 3.38329e-06
0 332 2.45317e-06
0 336 0.000132048
0 337 0.000336538
0 343 0.00125326
0 358 0.0049088
0 360 2.44174e-06
0 366 1.53103e-05
0 374 1.24989e-05
0 377 7.5837e-06
0 378 0.000125196
0 387 9.79261e-06
0 402 0.000203434
0 406 7.47675e-05
0 413 2.4725e-07
0 415 6.16625e-06
0 426 7.28211e-07
0 430 1.79794e-05
0 433 8.28116e-06
0 441 1.32202e-07
0 444 5.59502e-06
0 445 4.28606e-07
0 448 2.54408e-06
0 457 4.43181e-07
0 460 1.01911e-07
0 464 1.65505e-05
0 466 3.25084e-07
0 468 3.498e-06
0 476 4.44352e-05
0 491 0.000132018
0 495 5.22084e-06
0 496 1.42763e-07
0 500 2.40636e-07
0 510 5.85248e-07
0 511 7.36654e-07
0 519 2.15542e-07
0 521 5.13935e-07
0 527 1.52875e-07
0 530 2.00863e-06
0 545 3.03778e-06
0 556 2.69957e-06
0 570 1.39377e-07
0 582 1.16211e-05
0 589 6.16014e-05
0 591 1.51342e-05
0 593 3.02752e-07
0 604 2.54785e-07
0 607 1.40623e-06
0 609 6.99796e-06
0 614 2.07608e-06
0 629 9.80938e-07
0 644 1.94237e-07
0 668 1.51709e-05
0 685 1.24624e-06
0 700 2.48581e-06
0 706 1.88315e-06
0 723 0.000342956
0 730 4.25671e-07
0 746 1.07068e-05
0 747 5.16702e-06
0 752 1.08242e-06
0 758 1.24527e-05
0 762 1.09618e-07
0 766 4.40928e-07
0 774 1.67014e-06
0 795 2.46719e-06
0 803 1.19077e-07
0 848 9.71879e-06
0 851 4.83077e-07
0 879 2.63579e-06
0 896 8.16365e-07
0 905 3.00377e-06
0 907 2.56036e-06
0 944 1.54795e-07
0 945 3.57403e-06
0 959 1.84865e-07
0 979 1.98196e-05
0 982 5.31099e-06
0 987 3.29359e-07
0 1003 1.34177e-07
0 1077 2.50399e-07
0 1090 3.13737e-07
0 1098 2.96177e-05
0 1113 2.64432e-06
0 1132 3.6214e-06
0 1141 5.60995e-06
0 1148 2.58556e-07
0 1159 1.48625e-05
0 1176 2.44755e-06
0 1184 2.4401e-06
0 1203 3.86718e-07
0 1214 2.74622e-07
0 1248 7.74379e-07
0 1251 3.30697e-07
0 1275 5.89704e-06
0 1311 4.23624e-07
0 1319 1.9043e-06
0 1321 2.9938e-07
0 1331 1.08634e-06
0 1336 2.68629e-07
0 1364 4.87015e-07
0 1416 9.65153e-07
0 1436 1.16362e-07
0 1440 8.65927e-06
0 1480 4.83846e-06
0 1486 2.40188e-06
0 1545 3.28541e-07
0 1559 4.61685e-07
0 1624 2.44444e-06
0 1638 6.67017e-07
0 1647 2.72919e-06
0 1653 3.59346e-07
0 1744 1.98091e-07
0 1747 3.0542e-05
0 1783 2.38099e-07
0 1791 1.1965e-07
0 1821 2.22951e-06
0 1823 2.58469e-06
0 1859 2.44201e-06
0 1874 3.02476e-06
0 1908 1.10429e-06
0 1923 2.04359e-06
0 1999 2.44667e-06
0 2003 1.99509e-07
0 2025 6.1743e-07
0 2033 8.51615e-06
0 2043 1.15397e-07
0 2088 4.90828e-06
0 2150 1.55304e-07
0 2169 5.11017e-06
0 2286 1.04036e-07
0 2474 2.65538e-06
0 2513 3.26317e-07
0 2532 4.88604e-06
0 2713 2.14509e-07
0 2819 2.53573e-06
0 2927 1.40363e-05
0 2965 1.9898e-06
0 3073 2.24622e-06
0 3101 1.01e-07
0 3297 1.06983e-07
0 3383 1.14467e-07
0 3433 2.35313e-06
0 3563 1.45181e-05
0 3615 1.01347e-07
0 3672 1.32602e-07
0 3754 1.69522e-07
0 3776 1.96997e-05
0 3791 1.76888e-06
0 3857 2.25148e-07
0 3972 2.44176e-06
0 4417 2.72416e-07
0 4754 2.73e-06
0 4953 9.21991e-07
0 5018 4.87888e-06
0 5137 2.84069e-06
0 5144 2.43124e-06
0 5234 7.31104e-07
0 6521 2.2738e-06
0 6586 2.26299e-06
0 7705 5.08704e-07
0 7995 1.09653e-07
0 8041 2.62094e-06
0 8382 4.88348e-06
0 8652 1.27197e-06
0 8889 2.40214e-06
0 8899 1.85179e-07
0 8949 1.55121e-07
0 9159 1.85796e-07
0 11268 2.31422e-06
0 12532 2.44044e-06
2 2 0.14387
2 4 1.66348e-06
2 20 0.000214112
2 21 0.000859838
2 24 0.435821
2 29 0.000213846
2 34 0.227419
2 58 0.00421447
2 296 0.0567877
2 300 0.00075674
2 852 0.105345
2 918 0.00473777
2 1321 2.20745e-07
2 1352 0.000107501
2 1638 0.00631678
2 1795 2.47775e-05
2 2778 1.01458e-07
2 2917 0.00010689
2 3573 1.4519e-07
2 3614 0.0035839
2 4028 0.00387228
2 5048 1.80336e-06
2 5296 0.000107569
2 7473 7.69531e-07
2 8978 0.000898582
2 11081 0.00376292
2 11095 0.000537778
2 11283 0.000107564
2 12150 0.00032817
3 3 0.997748
3 27 0.000377439
3 28 1.71229e-07
3 359 0.000377077
3 455 0.000377078
3 1176 1.68829e-07
3 3190 0.000365419
3 4215 1.45726e-07
3 6600 0.000754155
4 3 0.000915768
4 4 0.997481
4 24 0.000104925
4 28 0.000210057
4 48 1.60877e-07
4 327 7.81156e-07
4 340 3.52015e-05
4 455 0.00035206
4 668 1.56065e-05
4 925 0.000140781
4 994 1.48205e-07
4 1159 3.72558e-05
4 1175 3.52193e-05
4 1354 7.0408e-05
4 1707 3.51991e-05
4 2088 0.000140917
4 3190 2.56201e-07
4 3563 6.71987e-07
4 3776 0.000106151
4 3805 0.000176097
4 3858 3.51865e-05
4 4080 1.06468e-07
4 5355 3.52019e-05
4 7297 3.51989e-05
4 9000 3.51998e-05
5 5 0.907604
5 697 0.0232718
5 1598 0.0232731
5 3576 0.0232719
5 4147 0.0225788
6 15 9.3608e-07
6 16 0.00753621
6 18 0.143561
6 20 0.031645
6 21 0.0111853
6 31 0.00811017
6 277 3.72159e-07
6 278 0.0172044
6 306 0.00367411
6 326 1.80927e-07
6 327 0.00414555
6 328 3.49512e-06
6 358 0.574851
6 362 0.00374433
6 374 1.99958e-05
6 438 0.00374954
6 574 1.06042e-06
6 575 0.015078
6 577 0.00749904
6 690 0.0131257
6 723 0.0780443
6 843 0.0243356
6 846 0.0205948
6 848 0.00188846
6 1030 1.40646e-07
6 1176 0.0075108
6 1320 1.2411e-07
6 1706 2.21469e-07
6 1808 7.79278e-07
6 2135 0.00750179
6 2321 1.77977e-07
6 2362 1.21659e-07
6 2489 3.81684e-07
6 2666 0.00187473
6 3563 4.6718e-06
6 3574 4.24728e-06
6 3726 0.00372843
6 4215 0.00562537
6 5466 0.00187478
6 10276 1.29793e-07
6 10881 1.31468e-07
6 14704 0.00187477
7 2 0.00821636
7 12 0.000146375
7 27 0.00015369
7 31 0.000875672
7 34 0.760281
7 38 0.000594546
7 277 0.000461019
7 296 0.0119053
7 309 0.00092157
7 328 0.000153661
7 374 3.3499e-07
7 406 0.0104301
7 593 1.47371e-07
7 668 1.74202e-07
7 852 0.19172
7 1486 4.74757e-07
7 1706 4.57013e-07
7 1716 0.000153693
7 1874 0.000314603
7 2169 1.46843e-07
7 3122 0.0112087
7 4642 0.000307393
7 7590 0.00215392
8 16 0.982112
8 293 0.000854493
8 362 0.000426946
8 534 0.000427201
8 685 0.000421789
8 844 1.80301e-07
8 1320 0.00256312
8 1783 5.69611e-07
8 2970 0.00854398
8 3106 0.000427201
8 3317 0.000427226
8 3563 0.00169475
8 4080 0.000427208
8 4324 0.00125417
8 10193 0.00041799
9 3 1.4373e-06
9 4 0.0244111
9 7 0.00339403
9 12 0.83011
9 14 0.00560672
9 15 0.00168344
9 20 0.00131005
9 21 0.00239896
9 25 1.15297e-07
9 26 0.00508202
9 28 0.0104969
9 34 0.00336335
9 36 0.00740869
9 40 0.0016353
9 327 2.34909e-07
9 392 0.000558693
9 455 0.00782009
9 653 0.00285365
9 803 0.00169277
9 819 0.00614581
9 824 0.0134122
9 843 0.00111151
9 907 0.000558764
9 1175 0.000558754
9 1192 0.00111744
9 1319 1.8686e-06
9 1599 0.0234685
9 1741 0.0375342
9 1744 9.14571e-05
9 1868 0.000558718
9 1881 0.00112309
9 2368 0.00446907
9 4636 1.96197e-05
9 5137 3.55763e-07
9 9355 3.33981e-07
10 3 0.000266321
10 14 0.00174202
10 15 0.767818
10 301 0.224674
10 361 0.000134026
10 362 0.000403321
10 852 0.000268299
10 994 0.000402584
10 1034 0.000133671
10 1041 0.000536214
10 1058 0.000536413
10 1089 0.000402937
10 1176 0.000133714
10 1320 0.000939137
10 1713 0.000268035
10 1862 0.000134038
10 3563 1.23095e-07
10 4329 0.000133192
10 6586 5.65149e-07
10 8147 0.000134054
10 9136 0.000938373
11 13 0.42277
11 16 0.000480374
11 18 0.37778
11 301 0.000481948
11 331 0.000161555
11 402 0.190899
11 846 0.000323417
11 1182 0.000161365
11 1275 1.5466e-06
11 1320 0.00193563
11 1344 0.000483802
11 2918 0.000161373
11 3563 0.0022609
11 3574 0.00193677
11 10939 0.000161376
12 14 0.813492
12 26 1.57167e-07
12 30 0.00527758
12 392 0.00117302
12 902 0.177428
12 1041 0.000897272
12 1340 0.000586496
12 1813 2.95262e-07
12 1947 0.000265185
12 5870 0.000585871
12 12837 0.000293321
13 4 0.000113477
13 16 0.00422206
13 38 0.0130635
13 328 0.000702199
13 358 0.499852
13 668 0.0151393
13 671 0.00422576
13 675 0.00140523
13 694 0.396923
13 700 0.00219824
13 723 0.010631
13 902 0.00562991
13 978 8.10846e-05
13 1176 0.00139644
13 1319 0.000722798
13 1337 0.000703646
13 1347 0.0225905
13 1371 0.00212965
13 1373 0.00209419
13 1727 0.00211015
13 1732 0.000703673
13 1813 0.000702269
13 1883 1.04804e-07
13 1958 0.0056243
13 2073 1.93543e-06
13 2234 1.02233e-07
13 3015 1.51521e-05
13 3563 0.00701738
14 9 0.488372
14 4022 0.511628
15 10 0.472317
15 11 0.525687
15 48 2.09195e-05
15 589 1.18984e-07
15 1012 0.000313338
15 1563 1.46101e-05
15 1853 1.75259e-07
15 2234 0.000276263
15 3294 1.70757e-06
15 3361 0.00136721
15 4260 7.50868e-07
15 11226 1.12304e-07
16 6 0.663403
16 10 0.0256095
16 11 0.00404087
16 48 4.60859e-07
16 50 0.134795
16 281 0.0446465
16 470 0.126639
16 550 4.52759e-06
16 2234 1.15434e-07
16 2388 2.00749e-07
16 3293 1.62286e-07
16 3565 1.34519e-07
16 3615 0.00085782
16 6916 2.00094e-06
17 7 0.339347
17 8 4.88518e-07
17 11 0.0211218
17 13 0.219869
17 314 0.242706
17 429 0.0461034
17 430 2.1578e-07
17 495 1.04404e-07
17 589 0.00013486
17 692 0.000392993
17 693 0.0139478
17 694 0.00136034
17 1228 0.0503827
17 1229 0.0245692
17 1283 5.96923e-07
17 1323 0.000265662
17 1436 1.34229e-07
17 1653 0.000150866
17 1856 0.000262854
17 2234 1.22219e-05
17 2920 1.57013e-06
17 3294 0.000411201
17 3297 2.2043e-06
17 3361 0.0112462
17 3615 3.07879e-06
17 4260 0.00012364
17 4360 1.76119e-07
17 5196 0.0275803
17 9482 1.18853e-06
18 8 0.36006
18 17 0.0716233
18 37 2.22131e-07
18 53 0.218128
18 58 0.000121899
18 377 1.48453e-07
18 395 0.00237006
18 415 1.57149e-07
18 430 0.058717
18 453 0.181501
18 457 4.62592e-05
18 496 9.12597e-07
18 510 0.0115617
18 581 1.42033e-07
18 652 0.0677673
18 664 0.000471088
18 748 0.00378012
18 866 0.00261345
18 944 1.63077e-06
18 1030 4.19245e-07
18 1188 2.94424e-07
18 1331 0.000258511
18 1846 3.47303e-07
18 1874 0.017665
18 2582 0.00189414
18 2822 0.000941764
18 4765 0.000235565
18 7897 2.63084e-07
18 8413 0.000235538
18 11519 4.02667e-07
18 11555 1.81325e-06
19 7 0.00966776
19 13 0.342524
19 19 0.395649
19 50 1.43043e-07
19 277 9.96571e-05
19 358 0.0121184
19 415 1.06571e-06
19 575 0.00137283
19 871 0.213617
19 959 2.9807e-07
19 1032 0.000199236
19 1082 6.34634e-07
19 1168 0.000596796
19 1486 6.16751e-07
19 2234 4.3063e-07
19 2826 1.26516e-07
19 2890 1.3763e-07
19 3456 0.000199188
19 3615 4.29159e-06
19 4260 0.000999289
19 4284 0.0174284
19 4363 1.5456e-07
19 4806 0.00333134
19 5371 0.00188762
19 7449 0.000199668
19 8889 1.34923e-06
19 9913 9.96122e-05
19 10319 5.16805e-07
20 8 0.960983
20 13 0.000456275
20 18 0.0168841
20 36 0.00034074
20 40 0.000588891
20 48 5.10181e-07
20 56 0.00424322
20 90 0.000371836
20 336 0.000573627
20 337 0.00435755
20 343 0.00744071
20 378 0.00359464
20 449 1.69461e-07
20 591 2.9458e-07
20 648 1.07079e-07
20 733 1.1122e-07
20 774 7.22663e-06
20 806 4.69654e-05
20 1020 1.92141e-07
20 1107 2.01199e-07
20 1486 1.23036e-07
20 1744 1.39387e-06
20 2033 4.24495e-06
20 2965 2.99972e-07
20 3377 2.32885e-07
20 3391 1.66651e-07
20 3433 1.8195e-06
20 3930 4.71295e-05
20 4417 3.31956e-06
20 4758 4.70572e-05
20 7310 2.24176e-07
20 7482 1.04321e-07
21 17 0.262771
21 19 0.323431
21 21 2.79864e-07
21 32 2.27237e-07
21 33 1.29463e-05
21 35 0.0212738
21 39 0.00460699
21 336 1.24652e-07
21 402 1.1781e-07
21 442 0.0129795
21 466 0.000174427
21 591 1.74507e-07
21 803 0.00549722
21 851 1.99836e-06
21 1028 0.00795049
21 1065 0.273045
21 1164 0.0297971
21 1167 0.000256038
21 1745 1.12974e-07
21 1847 0.0391812
21 3388 1.22215e-07
21 3596 0.00588708
21 4312 0.0120446
21 4704 5.49504e-06
21 5660 2.20805e-06
21 7939 3.73295e-06
21 8457 0.00025602
21 8727 0.000806217
21 11214 1.38008e-05
21 13476 4.70634e-07
22 4 0.012672
22 12 2.25729e-06
22 20 0.985785
22 291 5.59595e-07
22 328 0.000509726
22 1286 0.000255625
22 1696 6.15033e-07
22 3234 0.000255253
22 3294 0.000252351
22 3613 0.000255133
22 8377 1.14773e-05
23 21 0.971827
23 402 0.000116914
23 1032 0.000428792
23 2371 0.000143636
23 3190 1.21985e-07
23 4079 0.0133582
23 4324 2.93828e-06
23 5088 0.000133211
23 5163 0.000143636
23 5360 0.000430523
23 5488 1.99579e-07
23 5811 0.000287316
23 5868 1.16894e-07
23 5870 3.13686e-07
23 5919 0.000287568
23 5991 0.000143628
23 6340 0.000287247
23 6731 0.00229759
23 6994 0.000431305
23 7009 0.000143634
23 7273 0.000574543
23 7311 0.00142992
23 7322 0.00014363
23 7358 0.00057453
23 9112 0.00157734
23 9616 0.000143547
23 9671 0.000431206
23 10071 0.000143631
23 10824 0.000143633
23 10836 0.000287268
23 10841 0.000572326
23 10943 0.000430909
23 11118 0.000143652
23 12320 4.70922e-05
23 12458 1.05197e-06
23 12626 0.000145014
23 13077 0.000143634
23 13142 0.000143635
23 13353 0.000140716
23 13447 0.000143625
23 13566 0.000143634
23 13600 0.000143593
23 13629 0.000163766
23 13703 0.00028728
23 13713 0.000142058
23 13860 0.000287273
23 14025 0.00014363
23 14100 0.000142965
23 14190 0.000143636
23 14213 1.99881e-06
23 14428 0.00014348
23 14481 0.000143636
23 14657 0.000143491
23 14820 0.00014363
24 22 1
25 14 0.000855683
25 23 0.997427
25 27 0.00085617
25 582 0.000856123
25 3190 4.99864e-06
26 4 0.0002256
26 15 3.72591e-05
26 24 0.998651
26 27 0.000218046
26 31 3.97853e-07
26 34 7.51146e-05
26 188 3.73636e-05
26 277 3.73732e-05
26 278 3.73693e-05
26 332 0.000112224
26 419 3.737e-05
26 453 3.76991e-05
26 491 7.76772e-05
26 613 3.73831e-05
26 646 3.73659e-05
26 1301 3.73706e-05
26 1947 3.56571e-06
26 2088 3.76296e-05
26 2997 3.73705e-05
26 3190 1.0744e-07
26 5406 1.46513e-07
26 5858 3.73707e-05
26 6675 3.7369e-05
26 6820 1.1449e-07
26 7876 3.73688e-05
26 10382 3.73707e-05
26 11856 7.47337e-05
27 20 0.0017513
27 25 0.927333
27 28 0.0102346
27 301 0.000249767
27 392 0.000249799
27 402 0.000493308
27 815 2.65752e-07
27 907 0.000249784
27 968 0.000749299
27 1371 0.05719
27 1466 3.74777e-06
27 1643 2.43056e-07
27 1871 0.000495741
27 2859 0.000249766
27 3190 2.43088e-07
27 4839 0.000249767
27 6911 0.000249767
27 14066 0.000249767
28 7 0.000628709
28 12 0.995923
28 24 4.16511e-07
28 25 3.84299e-05
28 26 0.000597854
28 277 1.79885e-07
28 309 3.80392e-05
28 322 1.90158e-05
28 354 0.000133395
28 366 2.02054e-05
28 374 0.000671679
28 387 1.90884e-07
28 402 1.7958e-07
28 413 1.90195e-05
28 444 0.000146551
28 445 1.13466e-07
28 464 4.18544e-05
28 468 0.000226026
28 496 0.000173995
28 511 0.000112102
28 530 2.02565e-06
28 556 6.16813e-07
28 589 0.000432659
28 629 1.73278e-05
28 634 0.000109392
28 761 7.72697e-05
28 766 1.19988e-07
28 787 2.00499e-07
28 803 3.0777e-07
28 905 1.25231e-07
28 979 3.75165e-06
28 996 1.79249e-05
28 1007 1.8487e-05
28 1049 1.70432e-07
28 1159 3.11022e-07
28 1213 6.97728e-05
28 1252 5.42514e-05
28 1319 1.01175e-07
28 1321 1.91378e-07
28 1436 5.8272e-05
28 1538 1.33914e-06
28 1731 2.11417e-06
28 1747 1.09459e-07
28 1854 1.89062e-05
28 1923 2.08093e-07
28 2033 1.29323e-07
28 2286 1.34227e-07
28 2674 0.000209311
28 2965 2.15273e-07
28 2972 1.90178e-05
28 3101 1.00298e-07
28 3563 2.81883e-07
28 3974 1.12325e-07
28 4417 1.98044e-07
28 5098 2.1795e-07
28 5234 1.03661e-07
28 5583 1.05661e-07
28 6830 2.02869e-07
28 6907 1.365e-05
28 7310 3.67376e-07
28 8271 1.8713e-05
28 8978 6.58549e-07
28 10085 1.84464e-05
28 12547 1.7976e-05
28 12594 1.8979e-05
29 27 0.0842668
29 28 0.221075
29 30 0.684133
29 5825 0.0105251
30 20 1.09514e-07
30 24 0.00027147
30 29 0.528653
30 31 0.0010941
30 57 0.000711619
30 442 0.000717337
30 604 0.0121941
30 1638 0.336341
30 1675 8.62906e-05
30 2113 0.000358809
30 2680 0.0261535
30 3564 0.00215177
30 3614 0.0793198
30 5059 0.000294205
30 11045 8.97587e-06
30 11081 0.0116431
31 27 0.000534416
31 28 0.000803282
31 31 0.997279
31 1436 1.71456e-07
31 1795 0.00109403
31 1805 0.000267202
31 6590 2.16579e-05
32 13 0.000477233
32 20 0.00216776
32 21 0.000403515
32 31 0.000203135
32 32 2.16628e-07
32 33 5.87896e-06
32 37 0.743385
32 277 0.00263047
32 317 0.0704385
32 374 0.00233472
32 604 1.26315e-07
32 638 0.00020234
32 851 3.94851e-06
32 879 0.144223
32 949 0.000794546
32 1749 1.37386e-07
32 1821 0.00338666
32 2036 5.90471e-07
32 2288 0.000139462
32 2550 0.00020228
32 3475 0.0271788
32 4215 0.000202221
32 5088 1.00056e-07
32 5211 5.23019e-06
32 5654 1.45269e-05
32 7057 0.000206375
32 9362 0.0011898
32 9631 0.000202169
33 32 0.719766
33 36 0.1109
33 37 0.00261902
33 38 0.0252704
33 41 0.00256078
33 280 0.00770487
33 286 1.47143e-07
33 377 1.42722e-06
33 406 1.19231e-06
33 442 0.0603206
33 723 0.0664499
33 773 1.53467e-06
33 982 1.41177e-06
33 1262 0.00350699
33 1416 7.66784e-06
33 1617 1.35527e-07
33 2603 0.00087828
33 2827 5.6388e-07
33 3101 6.87027e-07
33 4315 3.81984e-07
33 4417 2.65602e-07
33 5234 2.98114e-07
33 7057 7.12646e-07
33 8233 5.95049e-06
34 20 0.000349499
34 33 0.588369
34 34 2.74888e-07
34 35 0.409721
34 38 0.000349592
34 591 0.000241927
34 640 1.00165e-07
34 1898 4.42904e-06
34 2489 0.000368811
34 4765 1.90104e-07
34 4953 0.000591836
34 7450 2.72493e-06
34 9261 1.08417e-07
35 32 0.0596061
35 37 0.698594
35 38 0.154626
35 40 0.0859388
35 430 1.22306e-06
35 466 9.58736e-07
35 491 2.43165e-07
35 694 3.39367e-07
35 1125 2.36489e-07
35 1168 1.06959e-06
35 1412 1.18614e-05
35 1483 1.80193e-06
35 1487 5.97244e-07
35 2136 1.68783e-07
35 2636 2.35458e-07
35 2927 1.68958e-06
35 3099 0.000603455
35 3408 5.59237e-06
35 4348 1.15811e-07
35 4684 1.48944e-07
35 5380 6.71819e-07
35 6036 0.000603563
35 7847 1.13527e-07
36 12 3.364e-07
36 32 0.00122608
36 38 0.831024
36 286 3.44372e-06
36 300 2.43507e-05
36 432 4.78888e-07
36 445 0.00122619
36 463 1.02872e-07
36 556 0.00859357
36 570 0.00367546
36 593 1.59659e-05
36 600 1.06376e-05
36 601 0.00121482
36 752 2.88991e-07
36 1003 0.0020252
36 1009 1.43377e-07
36 1081 0.138093
36 1436 0.00159885
36 1452 0.00124371
36 1791 1.30522e-07
36 1981 0.00123085
36 3183 4.0988e-07
36 3545 2.34632e-06
36 4492 0.00122291
36 7889 0.00245609
36 8030 3.05323e-06
36 8810 0.00366874
36 11081 5.48922e-06
36 11103 6.64633e-07
36 11652 0.00143147
37 39 0.91391
37 1164 0.064761
37 3596 0.0213157
37 8793 1.33954e-05
38 40 0.273146
38 188 0.119436
38 324 3.21732e-06
38 344 0.0141122
38 556 3.25004e-07
38 626 0.112938
38 1955 0.323662
38 2118 0.000735417
38 3718 4.84721e-07
38 4234 0.15595
38 6353 1.91211e-07
38 7333 1.20314e-07
38 11617 1.47387e-05
38 11652 1.04614e-06
39 7 0.128856
39 36 0.762762
39 40 1.55205e-05
39 53 0.00467048
39 58 0.0105997
39 337 2.86891e-06
39 384 1.35628e-07
39 405 0.000532128
39 415 8.52098e-05
39 430 0.00794445
39 460 4.56787e-07
39 487 1.17905e-07
39 496 0.0401152
39 505 1.87712e-07
39 556 3.79655e-07
39 742 1.33141e-07
39 746 0.000242718
39 751 0.000539212
39 834 0.000269158
39 848 5.2137e-07
39 948 0.00391075
39 953 9.06885e-05
39 1078 8.29869e-07
39 1079 5.42869e-05
39 1098 0.000952792
39 1159 0.00604155
39 1188 0.010861
39 1232 1.14055e-07
39 1311 0.00105127
39 1328 0.00242359
39 1440 4.92554e-07
39 1600 0.00150064
39 1653 7.33165e-07
39 1658 0.000539889
39 1675 0.000608339
39 1747 4.52805e-06
39 1749 0.00675484
39 1795 3.99586e-07
39 1823 6.39818e-05
39 2036 1.12526e-06
39 2692 8.76515e-05
39 2999 8.69382e-05
39 3442 6.33306e-07
39 3578 1.1079e-07
39 5001 0.00069564
39 5016 0.000438411
39 5030 0.000462922
39 5406 0.00418665
39 5926 8.79048e-05
39 6361 1.42181e-07
39 6591 8.61396e-05
39 7386 6.78147e-07
39 7705 6.37095e-05
39 7786 8.76269e-05
39 7863 0.00104283
39 7883 0.000269545
39 8012 0.000813346
39 8136 7.03395e-07
39 10033 8.76459e-05
40 35 1.39346e-05
40 48 7.74727e-07
40 640 0.00983233
40 654 1.78108e-06
40 729 0.0258717
40 803 0.12889
40 829 0.0135675
40 832 0.323229
40 1032 0.415845
40 1081 5.99536e-05
40 1164 0.00329495
40 1644 0.0139374
40 1717 5.10165e-07
40 1743 0.00172464
40 1747 1.46272e-06
40 1821 0.0281954
40 1987 0.00115433
40 3644 1.31561e-07
40 3645 0.00363473
40 4016 1.22911e-06
40 4260 0.0123169
40 4484 3.44422e-05
40 4704 0.0156086
40 4953 9.31465e-07
40 4954 8.03484e-07
40 5654 0.00168509
40 6590 2.9941e-06
40 7997 1.29234e-07
40 11214 0.00108937
40 11885 2.67891e-06
41 7 0.00631206
41 34 0.000596721
41 35 9.16288e-05
41 37 0.00563288
41 40 0.680825
41 48 0.181988
41 337 0.00458654
41 466 1.98138e-06
41 467 0.000593475
41 556 1.29347e-07
41 591 0.00177474
41 640 0.00552288
41 654 5.54803e-05
41 803 1.0037e-05
41 979 0.00945756
41 1065 0.0112206
41 1081 3.00652e-05
41 1141 0.0522366
41 1164 0.00646673
41 1251 0.0107072
41 1331 0.00143698
41 1749 8.5358e-07
41 1923 0.000604162
41 1987 8.15616e-05
41 2036 7.6284e-07
41 3645 0.00827004
41 4167 1.11255e-07
41 4350 0.00593466
41 4484 0.00117441
41 4954 5.94986e-07
41 5654 3.44726e-05
41 6590 0.00360068
41 7384 3.94854e-07
41 7557 1.22275e-07
41 8718 2.9796e-07
41 11214 0.00015223
41 11885 2.81848e-06
41 14007 0.000593454
42 41 0.9963
42 300 0.000278081
42 374 0.000570381
42 388 0.000278616
42 430 6.47384e-05
42 434 7.87094e-07
42 1127 0.000278622
42 1129 0.000278615
42 1470 0.000278618
42 1548 0.000279218
42 1983 0.000266899
42 2489 0.000278247
42 2638 0.000278551
42 2821 3.26011e-07
42 3667 1.02439e-05
42 7676 0.000278622
42 7862 0.000278626
43 42 1
44 4 2.39707e-05
44 12 0.976882
44 24 0.00306096
44 26 0.0196113
44 41 4.20636e-07
44 50 1.12181e-06
44 359 1.50498e-05
44 415 0.000314408
44 994 6.02585e-05
44 2511 1.50494e-05
44 3726 1.31511e-07
44 10120 1.50498e-05
45 43 0.99397
45 90 0.00307635
45 94 0.0029538
45 1554 1.45214e-07
46 44 0.506589
46 45 0.493411
47 46 1
48 4 3.82003e-05
48 25 1.93616e-05
48 26 0.996279
48 52 3.11639e-07
48 56 1.53956e-06
48 293 1.93635e-05
48 299 0.00115545
48 320 0.000141599
48 358 1.10327e-07
48 415 0.00210664
48 601 1.91084e-05
48 660 1.93412e-05
48 706 4.08579e-06
48 848 1.94785e-05
48 1021 1.91286e-05
48 1320 3.87577e-05
48 1338 1.93701e-05
48 1750 1.93332e-05
48 2732 2.43191e-07
48 5179 1.93614e-05
48 7302 1.9371e-05
48 7449 1.90579e-05
48 7450 8.63035e-07
48 10947 1.93712e-05
49 47 0.985009
49 50 1.84915e-06
49 3769 0.00760005
49 13880 0.00738921
50 24 0.996187
50 31 0.000359626
50 50 1.19038e-06
50 56 7.70752e-05
50 374 0.00269736
50 466 7.43316e-05
50 636 0.000151108
50 692 7.56023e-05
50 907 0.000300367
50 3190 1.2514e-07
50 7580 7.56298e-05
51 7 1.02717e-05
51 20 0.00802755
51 32 0.00280236
51 40 0.758527
51 48 0.00729331
51 53 4.62639e-07
51 56 0.183484
51 286 0.00257555
51 337 0.00781912
51 430 0.00320525
51 582 0.000166784
51 752 0.00258185
51 1081 1.15968e-07
51 1159 1.98228e-07
51 1275 7.44684e-07
51 1425 1.2004e-07
51 2034 0.0129169
51 2124 0.00516699
51 3123 0.00021195
51 3617 3.82023e-07
51 4329 7.3814e-07
51 6963 1.31994e-07
51 7768 1.26126e-07
51 7898 3.94741e-05
51 8012 0.00516795
52 24 6.33051e-07
52 49 0.126304
52 620 7.23521e-06
52 904 0.810558
52 905 0.000530588
52 1082 4.60308e-05
52 1339 2.30807e-07
52 1844 0.000693971
52 2680 1.00733e-07
52 3428 0.0492276
52 6257 0.00777337
52 7056 0.00485782
53 50 0.997692
53 58 4.77146e-07
53 2224 0.00230725
54 7 4.79801e-07
54 36 0.00638208
54 40 0.00287611
54 48 0.16383
54 52 0.400783
54 53 0.0847935
54 56 0.0457859
54 268 0.0665328
54 286 0.00216469
54 326 0.000260924
54 387 0.126701
54 460 0.000525511
54 491 0.00425341
54 495 0.00182402
54 510 1.22544e-05
54 530 0.000947594
54 567 2.45026e-07
54 629 0.00846297
54 634 0.0038519
54 723 5.96393e-07
54 802 1.56654e-06
54 806 0.000260338
54 1003 7.33012e-06
54 1009 0.0462517
54 1049 0.0201028
54 1168 2.85976e-07
54 1213 0.00713621
54 1251 0.000184111
54 1275 0.00102541
54 1364 0.00078385
54 1514 6.79182e-07
54 1668 1.25881e-07
54 1897 0.00130528
54 3099 0.00190091
54 3974 0.000783593
54 4261 0.000260966
54 5018 7.52219e-07
54 5166 6.58268e-07
54 5518 1.98487e-07
54 8271 2.42028e-06
54 14909 1.38175e-07
55 51 0.824956
55 3726 8.8377e-06
55 3857 0.0374367
55 5568 0.0197475
55 8498 0.098209
55 11242 0.0196418
56 52 1.02072e-07
56 53 0.505721
56 55 0.451175
56 57 0.00574547
56 3761 0.0373582
57 58 0.490148
57 59 0.5059
57 3476 0.00263489
57 7180 0.0013174
58 5 2.68928e-07
58 15 6.69127e-07
58 20 0.000544341
58 25 0.000182275
58 27 1.16126e-07
58 28 0.937895
58 319 0.000182214
58 330 0.000182213
58 333 0.00163995
58 1172 0.000182213
58 1527 0.000182212
58 1544 0.00091107
58 1727 0.0557273
58 2654 5.70103e-07
58 3898 0.000182212
58 3941 0.000182213
58 4022 1.65174e-07
58 4279 0.000364428
58 5443 0.000182208
58 6608 0.0012754
58 7758 0.000182214
58 10883 2.56543e-07
59 187 0.684048
59 413 0.271701
59 556 0.00183859
59 1903 0.00919418
59 2196 0.0166629
59 3137 0.00367773
59 3173 0.00919419
59 3351 5.52178e-06
59 6166 0.00367767
60 54 0.943396
60 9982 0.0566038
61 41 0.00268629
61 190 0.176943
61 9983 0.820371
62 7 0.0304846
62 24 0.000477441
62 40 0.266744
62 277 1.40353e-07
62 377 8.81436e-07
62 468 0.00611287
62 530 0.000894099
62 601 0.0044859
62 629 0.319294
62 668 0.270725
62 832 1.69805e-07
62 1141 0.000199672
62 1163 0.00200064
62 1251 0.000218635
62 1434 0.0896554
62 1749 1.36214e-07
62 1791 4.83475e-05
62 2014 0.00488576
62 7448 0.00310453
62 8855 0.000443075
62 9010 0.000222352
62 11180 4.18468e-07
63 53 5.129e-07
63 278 0.000155103
63 343 0.297726
63 358 0.630328
63 406 0.0178285
63 415 1.25086e-07
63 496 1.13992e-07
63 556 1.15399e-07
63 591 9.22254e-07
63 706 0.00273856
63 723 0.00205165
63 747 0.00279974
63 1441 0.000137199
63 1442 0.00015507
63 1745 0.00613614
63 1821 0.0366993
63 2033 0.00230461
63 2130 0.00031011
63 2208 3.35985e-06
63 2596 0.000153721
63 3094 3.94143e-06
63 4360 0.000154558
63 5146 0.000156144
63 6599 3.56523e-07
63 7546 0.000154962
63 12238 1.60792e-07
64 13 2.08593e-07
64 26 1.71083e-07
64 56 0.23726
64 345 5.05363e-07
64 685 0.209089
64 1330 0.289176
64 2068 0.124138
64 4360 0.135889
64 5636 0.0022229
64 8855 0.00222443
65 13 4.56157e-07
65 41 0.00384905
65 56 0.246198
65 57 0.621023
65 300 0.00384796
65 433 1.4213e-07
65 491 7.46874e-05
65 593 0.00601152
65 601 0.00393053
65 749 2.13458e-06
65 1081 0.0577571
65 4844 0.0244988
65 4937 0.0311223
65 13555 0.00168392
66 26 1.90444e-05
66 60 0.804143
66 837 8.67305e-05
66 2000 0.000899025
66 2492 3.42257e-07
66 3200 0.192076
66 5687 0.00277463
66 7897 7.3669e-07
67 61 0.998685
67 358 0.00131465
68 62 0.993197
68 5021 0.00170068
68 12865 0.00510204
69 63 1
70 64 1
71 65 1
72 66 0.997028
72 192 0.00139683
72 193 0.00157503
73 67 1
74 68 0.998758
74 69 0.00124164
75 69 1
76 70 1
76 12646 2.52256e-07
77 71 1
78 72 1
79 73 1
80 74 1
81 75 1
81 280 1.3011e-07
82 50 0.0028186
82 76 0.997181
83 50 0.00169313
83 77 0.998307
84 201 0.497408
84 203 0.502592
85 48 1.40078e-07
85 50 1.43989e-05
85 78 0.991662
85 2915 0.00832322
86 50 3.06485e-06
86 79 0.976336
86 402 1.16975e-07
86 795 0.00134317
86 2513 5.47709e-07
86 9669 6.16596e-07
86 9670 0.0223162
87 50 1.30848e-07
87 80 0.994962
87 470 0.00503831
88 50 6.04339e-07
88 81 0.5
88 82 0.5
89 73 0.00578034
89 83 0.982659
89 84 0.00578025
89 835 6.68823e-07
89 836 0.0057798
90 84 0.999975
90 470 2.49542e-05
91 85 0.999999
91 570 1.23985e-06
92 86 0.997817
92 13042 0.00218341
93 87 0.440382
93 92 0.552337
93 358 5.08504e-07
93 3006 0.00723928
93 3063 4.08016e-05
94 88 0.252019
94 89 0.251517
94 90 0.249466
94 91 0.246496
94 13237 0.000502028
95 92 0.504252
95 93 0.495748
96 90 1
97 90 0.00285274
97 93 0.0649478
97 94 0.159877
97 320 0.000680998
97 457 0.00252719
97 476 0.00114497
97 509 0.27735
97 1216 2.78023e-06
97 1269 0.123967
97 1366 0.323763
97 1498 0.000327376
97 1908 0.0185318
97 1919 0.0240213
97 2033 7.56068e-07
97 8198 2.44256e-07
97 9512 3.53351e-06
98 7 1.05785e-07
98 31 0.0382052
98 50 5.3395e-07
98 87 0.166978
98 95 0.692698
98 96 0.102118
98 628 2.06399e-07
98 4608 1.59099e-07
99 92 0.0594585
99 95 0.423356
99 515 0.269266
99 1433 0.219035
99 1683 0.0264151
99 1694 0.00164688
99 7358 1.21085e-07
99 14937 0.00082344
100 97 0.99355
100 99 0.00645005
101 50 8.62122e-07
101 98 0.999999
102 50 1.9109e-06
102 99 0.999998
103 100 0.999997
103 192 6.76857e-07
103 203 2.16952e-06
104 101 0.990196
104 7520 0.00980392
105 50 5.93209e-06
105 102 0.996604
105 5982 0.00338948
106 103 1
107 104 1
108 50 1.77287e-06
108 105 0.999998
109 106 0.979099
109 385 0.0033927
109 1480 0.00391138
109 5072 0.00339509
109 5900 0.0102017
110 107 1
110 192 1.75348e-07
111 108 0.999999
111 192 6.7414e-07
112 59 0.010049
112 109 0.929627
112 192 2.48379e-07
112 3125 0.0603001
112 14100 2.31392e-05
113 50 1.5077e-05
113 110 0.990802
113 111 0.00448
113 206 0.00451718
113 2389 7.68748e-05
113 10237 0.000109385
114 50 1.63671e-05
114 111 0.996463
114 207 0.00352106
115 20 0.367012
115 32 0.0198578
115 112 0.562364
115 399 0.0227866
115 430 3.01709e-06
115 1266 7.798e-06
115 1508 0.00253293
115 1533 1.20831e-07
115 1675 0.0025331
115 1912 2.39035e-07
115 2123 0.0101172
115 2579 0.0127735
115 4413 1.1064e-05
116 31 2.73139e-07
116 50 1.88417e-06
116 113 0.999997
116 1266 1.00404e-06
117 31 2.03697e-05
117 114 0.97925
117 123 0.0105745
117 128 0.010155
118 31 2.36483e-07
118 115 1
119 116 0.959522
119 2644 0.0173578
119 2678 0.0231202
120 90 0.325368
120 93 0.325534
120 117 0.349098
121 118 0.829307
121 543 0.0243897
121 1790 0.0650425
121 2829 0.0650424
121 3818 0.0162145
121 8792 3.68646e-06
122 119 1
123 50 9.9239e-07
123 120 0.136928
123 121 0.680084
123 169 0.00048543
123 176 0.121094
123 1772 0.061294
123 3708 0.000113346
124 50 5.87609e-06
124 120 6.51834e-06
124 122 0.999988
125 723 0.00341609
125 1366 0.328138
125 1908 0.66812
125 2273 0.00032684
126 122 1
127 50 1.32138e-05
127 123 0.97629
127 232 0.0125167
127 233 0.0111801
128 114 0.0154158
128 124 0.940369
128 224 0.0154158
128 3934 0.0154151
128 5457 0.0133843
129 125 0.989104
129 470 0.0108959
130 12 0.000108629
130 48 0.715165
130 50 0.0683833
130 348 4.26898e-05
130 979 6.84888e-05
130 1401 0.206929
130 10045 1.41855e-06
130 10307 0.00928448
130 10318 1.72092e-05
131 126 0.857637
131 129 0.0084082
131 132 0.0416263
131 136 0.0252246
131 137 0.0334713
131 658 0.0336328
132 127 0.971429
132 302 0.0142856
132 340 0.0142857
133 128 0.999989
133 4360 1.02681e-05
133 13400 4.60582e-07
134 50 4.51002e-05
134 129 0.999955
135 123 0.00980101
135 130 0.850329
135 274 0.000170937
135 302 2.5479e-07
135 336 0.000606323
135 347 0.00341174
135 385 0.00972628
135 419 3.285e-05
135 567 0.0195472
135 723 0.00954538
135 765 0.0195476
135 1009 0.0488663
135 3480 0.0183166
135 3613 0.0097481
135 5488 0.000350354
136 40 0.0213922
136 48 6.25456e-07
136 131 0.953392
136 268 1.13491e-07
136 336 1.53958e-05
136 615 2.62885e-06
136 1098 0.0011107
136 1125 0.0044971
136 1480 0.00395419
136 1821 0.00892693
136 2123 0.0019779
136 2169 0.000167817
136 2234 0.0045626
137 71 0.010989
137 132 0.989011
138 133 0.786562
138 280 0.0666461
138 718 0.0403343
138 2169 0.0398
138 4487 0.0666576
139 43 0.0107524
139 50 1.62293e-07
139 134 0.989223
139 1436 2.42441e-05
140 135 0.98718
140 201 0.0128205
141 136 0.999993
141 137 7.32192e-06
142 95 0.0159375
142 121 0.0158785
142 137 0.936816
142 166 0.00753163
142 169 0.0158782
142 170 0.00793869
142 3710 1.93142e-05
143 50 8.30499e-06
143 67 0.0217389
143 69 3.91248e-07
143 138 0.956514
143 215 0.0217389
144 107 0.329546
144 139 0.337121
144 140 0.333333
145 141 1
146 142 1
147 50 1.7031e-06
147 69 0.0256176
147 143 0.974381
148 144 1
149 49 0.00444473
149 50 1.2782e-07
149 145 0.991128
149 13812 0.00442683
150 20 0.340172
150 31 0.366864
150 146 0.289944
150 1082 1.87171e-05
150 1275 0.00138098
150 4669 0.00162025
150 12914 1.32655e-07
151 147 0.948886
151 280 4.70393e-07
151 589 0.00968746
151 737 6.14699e-06
151 1258 0.00486472
151 1330 5.62118e-07
151 3053 0.00531004
151 3110 0.0260617
151 3715 0.00518256
152 148 0.499942
152 149 0.500058
153 50 1.87501e-05
153 150 0.930048
153 470 0.0699336
154 148 0.509898
154 151 0.490102
155 148 0.470999
155 152 0.452356
155 14714 0.0766441
156 153 0.952381
156 212 0.0476189
157 154 0.5
157 155 0.5
158 50 9.11795e-06
158 156 0.999991
159 121 0.00414876
159 157 0.493702
159 158 0.493702
159 173 0.000149637
159 176 0.00414875
159 177 0.00414875
160 16 0.00633263
160 20 0.00645794
160 137 1.28418e-07
160 159 0.704597
160 160 0.019044
160 161 0.0190453
160 166 0.0678673
160 170 0.0126957
160 173 0.0179552
160 253 0.0571313
160 254 0.0571316
160 5484 0.00634803
160 5493 0.0253936
161 160 0.490197
161 161 0.457516
161 5364 0.0326796
161 10933 0.0196078
162 162 1
163 163 1
164 164 0.521739
164 165 0.478261
165 166 0.964962
165 402 0.00318667
165 445 0.00319035
165 1287 2.19807e-06
165 2169 0.00636556
165 2813 0.0222929
166 167 0.956525
166 216 0.0434755
167 168 1
168 32 0.0153407
168 121 0.21591
168 169 0.768727
168 3708 2.27275e-05
169 170 1
170 171 0.894743
170 2821 0.105257
171 172 1
172 173 0.824073
172 9533 1.43392e-06
172 10419 0.175926
173 174 1
174 67 2.45209e-05
174 69 1.14649e-06
174 175 0.982124
174 236 0.0178426
174 1188 8.1823e-06
175 176 0.160056
175 324 0.0844834
175 461 0.300069
175 464 4.93023e-07
175 589 0.00228324
175 2149 0.0343601
175 2455 2.93586e-06
175 4353 0.324803
175 5386 0.00687124
175 5545 0.0229064
175 5546 0.00231895
175 5563 0.0595553
175 6221 0.00229068
176 177 0.997052
176 184 0.00294822
177 26 0.00041282
177 40 4.71885e-07
177 176 0.0671138
177 178 0.820264
177 320 0.000350225
177 4348 0.0372818
177 6388 0.0372892
177 10033 0.0372879
178 179 1
179 180 1
180 181 1
181 182 0.511628
181 183 0.488372
182 184 0.696474
182 1771 0.303526
183 31 1.81879e-05
183 185 0.999982
184 50 1.14226e-05
184 186 0.910197
184 470 0.0897912
185 176 1
186 94 4.16793e-07
186 188 0.501257
186 189 0.498727
186 626 1.65191e-05
187 191 1
188 192 1
189 193 1
190 194 0.998821
190 1644 0.00117925
191 195 1
192 196 0.998035
192 11368 0.00196464
193 70 0.00122743
193 197 0.997545
193 835 0.00122754
194 198 1
195 199 1
196 200 0.997151
196 470 0.002849
197 50 5.11449e-07
197 201 0.999999
198 202 1
199 203 0.501531
199 204 0.498469
200 205 0.998465
200 206 0.00153499
201 206 1
202 207 1
203 205 0.00354506
203 208 0.996455
204 75 0.00232002
204 90 0.00232319
204 94 0.00238221
204 209 0.992974
205 50 1.84846e-07
205 210 0.984391
205 470 0.0156092
206 211 1
207 50 8.70919e-05
207 192 2.10329e-06
207 203 6.07464e-06
207 212 0.999905
208 50 4.29407e-05
208 192 1.06044e-06
208 203 2.03021e-06
208 213 0.985354
208 3620 0.0145998
209 50 4.99401e-06
209 204 0.00380224
209 214 0.996193
210 192 2.46765e-07
210 215 0.995527
210 216 0.00223082
210 9821 0.00224231
211 50 1.3626e-07
211 192 2.97484e-07
211 216 0.999655
211 470 0.000344386
212 50 5.64724e-07
212 217 0.983916
212 218 0.0033396
212 470 0.0127442
213 218 1
214 219 0.999966
214 470 3.39819e-05
215 220 0.709601
215 3840 0.290398
215 3929 5.37487e-07
216 50 1.47515e-07
216 221 0.999945
216 470 5.53519e-05
217 222 1
218 31 1.61623e-07
218 50 2.64804e-07
218 223 0.988764
218 8580 0.011236
219 31 0.0204412
219 50 2.94516e-06
219 224 0.979556
220 50 2.06371e-06
220 225 0.970425
220 470 0.0295732
221 50 8.79391e-06
221 226 0.999991
222 227 1
223 39 6.96542e-07
223 50 7.55866e-06
223 228 0.99999
223 236 1.45631e-06
224 39 1.60834e-07
224 50 1.3552e-05
224 123 3.09843e-06
224 229 0.999898
224 470 8.46692e-05
225 50 9.20288e-06
225 230 0.999991
226 231 1
227 50 6.86462e-06
227 229 0.00473993
227 232 0.995124
227 233 6.00299e-06
227 470 0.000123222
228 233 1
229 188 0.332478
229 234 0.33504
229 235 0.332482
230 50 8.14676e-07
230 129 0.00531923
230 236 0.989362
230 239 0.00531817
231 50 4.33426e-06
231 90 0.219321
231 94 0.219348
231 237 0.525195
231 358 3.5523e-07
231 1619 1.03294e-06
231 2486 0.0230853
231 5144 0.00150254
231 12901 0.011542
232 205 5.26326e-06
232 236 0.000107171
232 238 0.991342
232 239 0.00854511
233 239 1
234 140 0.501085
234 240 0.498915
235 50 1.88906e-07
235 241 1
236 94 0.00735062
236 242 0.985392
236 626 0.00725717
237 50 2.19438e-07
237 243 1
238 50 1.69779e-07
238 244 1
239 50 1.22413e-07
239 95 0.999629
239 470 0.000370928
240 48 3.58032e-07
240 96 1
241 50 1.85847e-07
241 95 0.00063311
241 207 0.00713865
241 245 0.992228
242 50 1.55804e-07
242 246 0.992699
242 10651 0.00730051
243 247 0.939759
243 4583 0.0602411
244 248 0.50625
244 249 0.49375
245 250 1
246 50 1.49947e-07
246 251 0.987808
246 252 0.0121923
247 50 0.0119311
247 252 0.96426
247 7693 0.0238089
248 253 0.498428
248 254 0.498428
248 619 0.00157233
248 1345 0.00157233
249 255 0.98374
249 6945 0.0162602
250 108 6.80111e-07
250 256 0.999999
251 257 0.924669
251 407 9.02458e-06
251 718 0.0188707
251 1265 3.41946e-06
251 1480 0.0188704
251 4786 0.0187072
251 5984 0.0188705
252 38 0.00671074
252 145 1.22003e-07
252 258 0.489808
252 337 1.01868e-07
252 851 0.0268499
252 1054 1.36622e-06
252 1416 4.45957e-07
252 1744 0.0100686
252 1768 3.52096e-07
252 2036 0.127385
252 2313 0.0436321
252 2401 0.248363
252 5261 0.0437511
252 11043 0.00342944
253 95 0.24686
253 259 0.147478
253 2345 0.239751
253 2346 0.365911
253 2486 1.19005e-07
254 258 0.000601929
254 259 0.01197
254 260 0.987427
254 3156 9.43072e-07
255 261 1
256 176 0.254034
256 262 0.249653
256 263 0.249591
256 264 0.246722
257 26 0.986187
257 53 5.13185e-05
257 56 0.003716
257 299 0.00713103
257 309 0.000362006
257 343 3.89875e-07
257 374 0.000546548
257 415 0.00090166
257 459 7.83005e-06
257 468 0.000906522
257 522 2.93179e-07
257 600 1.31523e-07
257 1215 5.70659e-06
257 1216 1.52729e-06
257 4261 0.000181196
258 265 1
259 219 0.946224
259 262 0.0537757
260 266 1
261 13 0.258137
261 52 0.358033
261 90 0.000334665
261 268 0.251091
261 274 0.00103846
261 337 0.0014354
261 343 0.0076225
261 366 0.00271806
261 378 0.00378496
261 413 0.0545726
261 448 0.0222489
261 457 0.00701313
261 491 6.73426e-05
261 552 0.000355213
261 591 0.00105786
261 634 0.0010693
261 730 0.00210097
261 738 2.36231e-07
261 746 0.00175342
261 753 1.83358e-06
261 758 3.12034e-07
261 843 0.000341316
261 848 2.04192e-05
261 928 0.000339773
261 979 6.45402e-07
261 1143 0.000744141
261 1203 1.07408e-05
261 1436 2.34541e-07
261 1498 0.0136726
261 1535 3.28346e-07
261 1717 0.000688645
261 1747 0.00303964
261 1791 0.00176642
261 1854 2.67817e-05
261 1890 0.00284745
261 2081 4.27835e-07
261 2767 2.7518e-07
261 3138 0.000341259
261 3886 8.518e-07
261 4869 2.86828e-06
261 4939 1.61975e-06
261 6472 0.000341354
261 6862 0.000341279
261 8339 1.13054e-07
261 10127 1.51843e-06
261 11161 6.80691e-06
261 11336 0.000341257
261 12596 0.000341719
261 14863 0.000341203
262 26 6.14494e-05
262 270 0.805199
262 281 0.00628599
262 292 0.0154351
262 368 0.074131
262 466 0.000192096
262 560 0.00257252
262 793 0.00771754
262 1087 0.0343145
262 1112 0.0231527
262 1563 0.0205969
262 2412 4.93393e-07
262 2635 0.0025108
262 2732 0.000193538
262 3495 0.00254923
262 3711 3.21644e-06
262 4108 0.00257252
262 7144 0.00251009
262 11225 1.54536e-06
263 272 0.619633
263 2629 0.0704384
263 4713 0.0563507
263 5079 0.112701
263 5080 0.0704384
263 5081 0.0704384
264 269 0.353592
264 271 0.235247
264 892 0.147021
264 1868 0.147021
264 1933 0.117119
265 267 0.0198678
265 268 0.3876
265 281 1.68286e-07
265 336 1.58313e-05
265 406 0.000565756
265 448 0.512098
265 469 0.0122711
265 491 0.000269048
265 544 1.01114e-06
265 616 0.0333066
265 744 0.00175348
265 2118 0.0251261
265 2505 0.00351901
265 3101 1.90567e-07
265 3754 2.97402e-06
265 4417 1.4884e-07
265 4816 3.42073e-07
265 5321 0.000717283
265 6521 3.97411e-05
265 7064 0.000584348
265 9732 0.00167676
265 14853 0.000584167
266 275 0.41962
266 391 0.148247
266 406 4.71063e-07
266 496 0.00500406
266 556 1.82207e-06
266 643 0.0100042
266 698 1.31714e-07
266 1001 0.00248756
266 1123 1.12449e-07
266 1289 0.00251145
266 1353 0.165406
266 1440 4.02112e-07
266 1442 0.0628191
266 1478 0.0100973
266 1597 5.91552e-07
266 1717 0.00254673
266 1996 0.00251324
266 2160 0.00251473
266 3513 0.00518257
266 3954 0.00251363
266 4748 0.00251384
266 8096 0.00501643
266 9071 0.00249014
266 9118 0.00251322
266 9855 0.13098
266 9856 0.00220959
266 9980 0.010054
266 13993 1.282e-05
266 14776 0.00273859
267 48 4.24073e-05
267 275 0.000482592
267 276 0.568546
267 390 0.100331
267 391 0.0344932
267 491 6.06392e-07
267 556 0.033444
267 711 0.0334382
267 718 0.033444
267 746 0.0333691
267 983 0.033444
267 1289 1.35683e-05
267 5032 0.0167219
267 5503 0.0333599
267 7823 0.0287935
267 10058 0.0334434
267 10059 0.016632
268 273 0.0644396
268 384 0.0161133
268 784 0.0161015
268 1087 3.89078e-05
268 1332 0.628463
268 1480 1.64875e-06
268 1661 0.0161144
268 2409 0.064455
268 6193 0.194271
268 12539 8.74258e-07
269 26 0.0093253
269 274 0.968513
269 468 3.63841e-07
269 609 2.99656e-07
269 669 3.05427e-06
269 900 0.0144207
269 953 0.00131134
269 1251 5.12509e-07
269 1506 0.000943419
269 1559 0.00285751
269 4091 0.00262406
269 4863 1.27152e-07
270 32 0.103508
270 34 4.31349e-07
270 277 0.436697
270 278 0.45578
270 314 0.00230718
270 358 0.000721704
270 982 4.67666e-07
270 1321 2.08986e-06
270 1364 1.37976e-07
270 1653 2.64264e-06
270 1747 0.000281518
270 2478 0.000356091
270 3415 7.1223e-05
270 5193 7.12474e-05
270 8461 8.9247e-06
270 12320 0.000190293
271 274 0.00927347
271 279 0.241609
271 280 0.219027
271 290 0.00045458
271 300 1.69388e-07
271 343 2.57179e-05
271 358 0.0792127
271 375 0.211433
271 476 0.00256746
271 479 0.00182769
271 579 1.14645e-07
271 581 0.00046413
271 595 0.000681804
271 606 0.000200609
271 685 0.00044886
271 767 0.0554589
271 937 0.0152053
271 1075 0.000909158
271 1115 0.00022729
271 1126 0.0743162
271 1185 0.0165922
271 1249 0.000225654
271 1319 4.18191e-06
271 1421 1.06749e-06
271 1486 4.91048e-07
271 1648 9.14538e-06
271 1876 0.0284047
271 2676 0.00389616
271 3314 0.031366
271 3341 1.64151e-05
271 4971 0.00500231
271 6843 4.4443e-07
271 7398 0.000910082
271 10786 0.000227265
271 11998 2.28361e-07
272 280 0.363559
272 281 0.636441
273 13 0.00252983
273 269 0.000523292
273 274 1.02425e-07
273 282 0.325382
273 283 0.336692
273 294 0.176425
273 295 0.156847
273 378 0.000547635
273 841 0.000234057
273 842 3.43805e-06
273 4417 1.4094e-06
273 9664 0.00027115
273 11287 0.000451916
273 12350 9.03759e-05
274 274 1.34872e-07
274 284 0.750643
274 314 0.00100493
274 552 3.95139e-06
274 553 0.0461799
274 982 5.45903e-06
274 1111 0.186907
274 1252 9.11818e-06
274 1656 0.00199186
274 1949 0.0112439
274 2082 2.53556e-07
274 3243 0.00100545
274 7569 0.00100486
275 271 0.157943
275 281 0.000964218
275 285 0.542976
275 336 6.56915e-07
275 388 1.75665e-06
275 396 0.152882
275 415 1.46254e-07
275 982 1.99442e-06
275 998 5.91809e-06
275 1128 0.0977002
275 1366 0.00154719
275 1933 0.0183165
275 2150 0.0268868
275 2208 0.000774163
276 280 0.224801
276 281 0.0652959
276 286 0.506966
276 388 1.08872e-07
276 406 4.07947e-07
276 457 0.0704473
276 491 7.74456e-07
276 723 0.0175576
276 758 0.0876229
276 1100 3.20947e-06
276 1248 5.28498e-06
276 2058 0.0218372
276 2474 7.42942e-07
276 5518 0.00546101
276 5687 1.42808e-06
277 7 0.012947
277 13 1.79883e-07
277 48 0.0101254
277 56 0.0426722
277 273 3.32823e-07
277 286 0.0566021
277 336 0.16043
277 347 0.00214177
277 354 1.08659e-07
277 377 0.587022
277 378 0.0585187
277 402 0.00196137
277 491 4.46833e-07
277 494 2.75906e-07
277 601 0.0447113
277 629 0.00114101
277 717 7.1567e-07
277 723 0.00250078
277 746 0.00324195
277 760 0.000462409
277 787 1.35616e-06
277 795 2.51566e-07
277 885 1.42777e-05
277 891 0.00512515
277 1078 0.00119914
277 1098 0.00664577
277 1138 2.02366e-05
277 1188 0.000126817
277 1226 1.2348e-06
277 1251 1.04114e-07
277 1293 0.000363801
277 1311 5.28829e-07
277 1379 4.48925e-07
277 2056 1.58785e-07
277 2107 0.000940737
277 3667 0.000232799
277 3885 0.00061635
277 4161 1.38595e-07
277 5707 2.16397e-06
277 5709 3.94956e-07
277 8110 1.18577e-06
277 11489 0.00022611
278 287 0.741788
278 452 0.068686
278 511 0.0391506
278 3588 0.013149
278 7475 0.123631
278 8718 0.0135944
279 26 0.0320749
279 53 0.0247692
279 280 0.0318017
279 286 0.0838294
279 288 0.0208186
279 289 0.142502
279 358 6.38479e-07
279 383 2.39416e-06
279 415 1.31533e-07
279 459 0.0172272
279 547 0.40338
279 582 0.0172591
279 589 0.0117584
279 773 0.0137994
279 892 0.0380767
279 1098 0.0351056
279 1415 1.36327e-07
279 1468 0.0827052
279 1469 4.63053e-05
279 1503 3.83445e-05
279 1871 0.0379095
279 2539 0.00344874
279 7889 0.00344567
280 286 4.50406e-05
280 288 0.495999
280 630 2.42526e-05
280 706 5.48319e-05
280 1503 0.48097
280 3124 5.98184e-07
280 3142 0.022906
281 280 0.196484
281 289 0.236529
281 340 0.032717
281 452 0.0655683
281 491 0.0440487
281 553 0.0546314
281 589 1.27652e-06
281 648 0.0316548
281 692 0.0109283
281 1080 0.021916
281 1431 0.0655697
281 1593 0.032788
281 2516 0.0546416
281 2796 0.0217619
281 4809 0.0109283
281 6019 0.0109283
281 6387 0.0218566
281 7476 0.0437132
281 8194 0.0105493
281 10140 0.0327849
282 56 1.40088e-05
282 278 0.000792418
282 280 0.0555139
282 290 0.618694
282 291 0.000264222
282 358 4.12606e-06
282 476 0.183953
282 566 0.0516621
282 1004 0.0450471
282 1624 0.000263423
282 1754 0.0326849
282 2474 0.000526806
282 4211 0.0103167
282 7147 0.000263284
282 10786 1.47517e-07
283 8 0.95136
283 32 0.00736595
283 176 0.000487134
283 291 0.0132802
283 293 0.000684855
283 295 9.36348e-05
283 306 0.000622644
283 317 0.0155456
283 406 2.99647e-07
283 430 9.86335e-05
283 432 0.000287616
283 433 0.00561343
283 441 2.19242e-06
283 442 0.00162659
283 444 1.21627e-07
283 466 0.000287272
283 566 0.000194591
283 576 9.72825e-05
283 843 0.000789007
283 903 0.000388299
283 904 0.000194177
283 994 0.000686024
283 1228 2.86907e-07
283 1416 3.12832e-07
283 1624 1.91844e-07
283 1912 1.12363e-06
283 2025 9.66226e-05
283 2056 4.33852e-07
283 2914 1.80734e-07
283 3122 3.41778e-07
283 4542 9.56414e-05
283 6591 1.26094e-06
283 7411 9.70218e-05
283 12515 1.34615e-07
284 292 0.0868778
284 325 0.000694818
284 445 0.000347648
284 544 0.225753
284 669 0.683545
284 685 0.000347677
284 768 0.000694764
284 1020 0.000347514
284 1134 0.00104201
284 2297 8.56175e-07
284 3886 4.90157e-07
284 4305 1.36325e-07
284 6970 1.92778e-07
284 12572 0.000347407
285 293 0.950649
285 442 0.000437922
285 600 5.46668e-07
285 601 7.91223e-07
285 684 0.000166585
285 2454 0.0168223
285 3287 0.0280398
285 4077 1.30178e-07
285 6922 0.000431341
285 8720 4.3368e-07
285 9104 0.00345073
286 12 0.277133
286 13 0.432803
286 18 0.262227
286 20 0.00197813
286 31 0.00289653
286 38 2.45721e-06
286 324 0.0015043
286 327 0.00206892
286 333 0.00125666
286 374 0.00638734
286 433 3.228e-07
286 570 0.000255548
286 668 0.000246809
286 848 1.70277e-05
286 906 0.00623288
286 1045 0.000249359
286 1125 6.64388e-07
286 1315 8.03027e-07
286 1379 9.21588e-07
286 1436 0.000480306
286 2224 0.00400218
286 2342 0.000249825
286 2827 1.53364e-06
286 3101 5.3002e-07
286 4417 3.75849e-07
286 5124 1.83624e-06
287 297 1
288 4 0.0060718
288 20 0.991993
288 24 0.000712388
288 25 0.000434033
288 28 0.000578914
288 1387 0.000144687
288 1696 6.4091e-05
288 5406 5.6555e-07
288 7482 1.49957e-07
288 11045 1.07914e-07
289 294 0.149907
289 298 0.648777
289 441 0.00423396
289 466 0.021506
289 467 0.025694
289 842 0.149882
290 21 0.00188767
290 31 0.758835
290 32 0.112852
290 41 8.42485e-05
290 58 0.000723519
290 317 4.03367e-07
290 327 1.87197e-07
290 336 1.87979e-06
290 582 0.000221202
290 709 1.08359e-06
290 861 4.75779e-06
290 968 0.000111381
290 1675 1.34464e-07
290 1696 1.49843e-07
290 1791 2.25023e-05
290 1823 0.122807
290 1826 0.000111384
290 2336 1.23057e-07
290 3543 2.85015e-07
290 4308 7.32552e-06
290 4546 3.47695e-06
290 4937 0.00183445
290 5146 2.52376e-07
290 5406 8.40964e-06
290 6586 1.46827e-07
290 6591 3.55221e-07
290 6752 1.19474e-07
290 6907 2.49073e-05
290 7242 8.60001e-06
290 7479 3.19703e-06
290 7482 5.25443e-07
290 7705 1.03183e-05
290 7786 1.43281e-07
290 7849 4.05756e-06
290 7882 0.000111374
290 7939 1.56548e-07
290 7997 6.93846e-07
290 8727 1.02649e-05
290 9355 4.16705e-07
290 9376 3.30115e-07
290 9485 3.13848e-07
290 9902 0.000102965
290 11045 1.37081e-06
290 11081 8.53075e-05
290 11180 4.58288e-07
290 11214 1.95177e-06
290 11555 2.16115e-07
290 14533 0.000111348
291 8 0.742192
291 94 0.00106938
291 281 0.119427
291 343 0.00342736
291 358 0.0511796
291 425 0.00636935
291 467 1.70412e-06
291 566 0.00106845
291 567 0.0457889
291 746 0.00109407
291 843 0.0205578
291 848 6.1569e-07
291 1013 0.00242467
291 1174 0.00109704
291 1213 8.78515e-06
291 1235 0.0010662
291 1436 0.00214
291 1597 8.04586e-06
291 1636 2.05939e-07
291 1702 0.00107404
291 3672 1.29834e-07
291 4311 3.4732e-06
291 6430 2.76806e-07
291 7698 1.17133e-07
291 7768 1.48737e-07
291 8889 1.47778e-07
292 53 0.00659609
292 56 3.02115e-07
292 291 0.634898
292 311 0.00753096
292 430 0.0925364
292 442 0.000654023
292 453 0.0083785
292 466 0.038995
292 468 6.14945e-07
292 570 0.0367719
292 593 0.00339327
292 634 3.09619e-07
292 706 0.000806088
292 843 1.11679e-07
292 866 1.5668e-05
292 945 0.00665181
292 979 0.00946039
292 1081 1.53809e-06
292 1105 2.24441e-07
292 1235 2.08856e-07
292 1412 1.13818e-06
292 1486 6.11947e-07
292 1637 0.0141242
292 1647 0.0562186
292 1717 0.052583
292 2128 0.000869269
292 2224 3.97892e-05
292 2489 0.00673831
292 2673 5.36287e-06
292 2827 0.000610025
292 3103 0.01272
292 3341 1.15145e-06
292 3472 0.00756487
292 4056 6.04141e-05
292 4369 0.00176942
292 5144 7.66436e-07
292 7108 2.016e-07
293 12 0.000146703
293 26 0.37006
293 28 0.000116422
293 56 0.421828
293 271 2.60801e-06
293 299 0.206071
293 378 0.000607558
293 468 0.00046764
293 582 0.000349422
293 634 0.000225483
293 715 1.11226e-06
293 885 6.08392e-06
293 1113 1.10976e-07
293 3383 2.11315e-07
293 4446 0.000116421
294 13 0.0119212
294 304 0.601044
294 814 0.142748
294 1366 3.30389e-07
294 2465 0.161546
294 3287 0.00375649
294 4015 0.0300584
294 9734 0.0301427
294 10161 0.0187826
294 13145 1.60951e-07
295 295 0.439682
295 305 0.5567
295 677 4.74047e-05
295 842 2.28248e-05
295 1717 0.00354816
296 4 1.51907e-07
296 41 9.88388e-05
296 270 0.00227761
296 302 0.33486
296 336 6.66626e-07
296 337 4.27026e-07
296 340 0.65736
296 406 5.33371e-07
296 442 9.47764e-05
296 445 9.54008e-05
296 544 0.000201709
296 552 1.47682e-07
296 645 9.117e-05
296 717 0.000128152
296 949 9.45432e-05
296 1003 6.04374e-07
296 1068 9.45563e-05
296 1353 5.63292e-07
296 1981 0.000189088
296 2212 0.00393453
296 2531 1.54111e-07
296 2926 9.45439e-05
296 2961 5.12577e-07
296 5840 9.45542e-05
296 10081 1.63536e-06
296 11460 9.45439e-05
296 14391 9.44997e-05
296 14531 9.45439e-05
297 13 0.432272
297 294 2.13858e-06
297 303 0.308993
297 309 0.00297703
297 841 0.158578
297 842 0.0789028
297 1912 0.0168635
297 3287 0.00141083
298 14 0.00056517
298 18 2.33187e-06
298 25 0.000538712
298 31 0.000564758
298 32 0.00109642
298 277 0.000566325
298 300 0.540934
298 430 0.00394269
298 448 0.00395402
298 454 0.37002
298 491 0.000552112
298 568 0.0522447
298 603 0.000136048
298 604 0.00906218
298 626 0.00282908
298 640 0.000566444
298 723 0.000543692
298 1122 5.60404e-06
298 1233 2.45318e-07
298 1466 0.000557921
298 1638 0.00389851
298 1871 8.4924e-06
298 2224 0.000571116
298 4103 3.22028e-05
298 4626 4.79027e-07
298 4931 0.000566405
298 5206 0.000566403
298 5840 0.00114141
298 7435 0.000566127
298 7473 0.00282795
298 7867 0.000570864
298 14537 0.000566398
299 26 0.000474523
299 306 0.914252
299 374 0.000995224
299 445 0.00037153
299 677 0.0132721
299 684 0.00443516
299 917 0.0478904
299 2710 0.00137323
299 3202 0.000915608
299 4024 0.00183127
299 4059 0.000457263
299 4414 2.02037e-06
299 6642 0.000916446
299 6783 2.20746e-06
299 6858 0.000490741
299 6908 0.00041899
299 8486 0.00137345
299 8526 0.00364629
299 8663 3.66827e-07
299 9640 3.04768e-07
299 10217 0.000457818
299 10247 0.00228909
299 10502 1.6226e-07
299 10881 2.31593e-06
299 11116 0.000457817
299 11999 0.00137345
299 12378 0.000457817
299 12900 0.000915502
299 12914 1.00978e-07
299 13317 0.000457815
299 13500 0.000467741
299 14790 2.60626e-07
300 34 4.49204e-07
300 307 0.962197
300 496 1.17409e-07
300 677 0.0037593
300 842 0.0303062
300 2088 0.00373651
301 308 0.996516
301 681 0.00348393
302 24 1.0537e-06
302 52 0.000368929
302 309 0.934265
302 333 0.00292612
302 439 0.000367196
302 692 2.60064e-07
302 1113 1.06582e-07
302 1338 0.0363524
302 1945 0.00184197
302 2212 0.000367193
302 2489 1.08166e-07
302 3459 0.00294572
302 3866 0.0201961
302 7153 0.000367195
303 20 0.000267789
303 24 2.27453e-05
303 274 0.041376
303 280 0.192791
303 310 0.0799343
303 377 0.00120666
303 400 0.000268321
303 476 0.0031957
303 506 4.96305e-07
303 565 0.00857713
303 605 0.139214
303 666 0.00621448
303 751 0.00106067
303 820 0.0270158
303 886 0.105685
303 1121 0.0327238
303 1126 0.000268185
303 1360 0.00427652
303 1380 0.00384702
303 1410 0.127949
303 1437 1.58956e-07
303 1480 0.00842371
303 1558 0.0684129
303 1730 0.000536793
303 1758 0.0128754
303 1924 5.47408e-07
303 2153 0.000268299
303 2390 0.0273602
303 2410 0.0193129
303 3278 0.0528427
303 3314 0.000268236
303 4081 0.0238698
303 4084 0.000268253
303 4797 0.000804725
303 5383 0.000804663
303 5534 0.000273427
303 5641 0.0029506
303 6362 4.87221e-07
303 6597 3.89014e-07
303 7556 0.00241412
303 8152 0.000539668
303 8819 0.000268231
303 11237 0.000268237
303 12755 0.00134118
304 12 4.36493e-05
304 21 0.00278491
304 40 0.049868
304 56 0.448407
304 280 0.0851063
304 311 0.0506712
304 354 0.0028157
304 405 0.0616197
304 448 0.00281233
304 466 2.35065e-06
304 556 0.233461
304 591 9.69403e-07
304 747 0.00560489
304 1282 0.0253409
304 1364 0.00565437
304 1480 9.22373e-06
304 1791 0.0112627
304 2151 0.00267733
304 2901 1.28895e-07
304 3925 0.011329
304 4754 3.05152e-07
304 10218 0.000427816
304 11823 6.55264e-05
304 13100 3.51073e-05
305 13 0.0573471
305 282 0.0408296
305 294 0.00242304
305 314 0.0504603
305 315 0.201118
305 336 3.61992e-07
305 341 0.00240012
305 555 0.0316141
305 566 3.10065e-06
305 850 0.195951
305 862 0.00969315
305 897 1.36701e-07
305 1908 0.113986
305 1919 0.246041
305 2966 1.49461e-07
305 3986 0.0411929
305 6990 0.00241957
305 7715 0.00242325
305 8041 0.00209566
305 8061 1.27273e-07
305 12759 4.07739e-07
306 13 1.37686e-07
306 20 7.04189e-07
306 26 0.684681
306 53 0.301105
306 56 3.17172e-07
306 358 1.30602e-07
306 378 0.00327666
306 384 4.01286e-06
306 413 3.95432e-05
306 450 5.60439e-07
306 500 0.000159391
306 589 0.000573614
306 607 0.000196794
306 746 1.31615e-07
306 843 0.000193309
306 1108 4.8917e-07
306 1148 4.03125e-07
306 1164 2.22255e-07
306 1402 1.00393e-07
306 1436 0.00393456
306 1440 1.88068e-05
306 1490 5.52775e-07
306 1496 1.96202e-07
306 1747 5.15254e-05
306 2025 0.00241509
306 2141 0.000622341
306 3262 2.43619e-07
306 3476 8.16031e-06
306 3754 1.24767e-06
306 3886 5.68043e-07
306 4029 0.00110246
306 4117 1.18447e-06
306 4997 0.000554898
306 6217 4.13224e-07
306 7056 1.68801e-07
306 7409 1.61698e-06
306 7698 2.8275e-06
306 7849 0.000169091
306 9355 0.000694122
306 11564 0.000184956
306 11885 7.61359e-07
307 316 0.297967
307 521 0.63388
307 556 1.10468e-07
307 710 0.0179727
307 737 0.0150284
307 746 5.09579e-06
307 1060 5.48382e-06
307 1098 1.49021e-06
307 1104 0.000756665
307 1460 0.0009632
307 1588 0.00075069
307 1671 0.00020907
307 1707 0.000150702
307 1787 0.0183624
307 4357 0.00375374
307 4546 0.000300079
307 6572 0.000434505
307 6672 0.00690609
307 8115 1.43599e-07
307 8557 0.000900829
307 9640 0.00150124
307 14646 0.00015014
308 268 0.0632443
308 286 2.59484e-06
308 313 0.0378451
308 406 0.000539817
308 463 0.538435
308 604 6.53782e-07
308 613 0.0071363
308 633 0.183189
308 753 0.000539615
308 896 0.0297326
308 994 0.00181025
308 1188 0.000449497
308 1364 5.14092e-07
308 1408 0.0009002
308 1821 5.01882e-07
308 1946 0.000951324
308 2150 0.000509231
308 2208 1.54971e-06
308 2513 4.09145e-07
308 2915 0.00726662
308 3101 1.24554e-07
308 3225 0.122914
308 3387 0.00272393
308 3436 0.00135456
308 4417 1.26448e-07
308 9195 1.00972e-07
308 10027 0.000449152
308 10272 1.05536e-07
308 11168 1.04334e-07
308 14047 1.41083e-06
309 312 0.477631
309 313 0.454986
309 332 0.000663448
309 497 0.00066618
309 1089 2.90499e-07
309 1193 0.0240562
309 1636 0.0166539
309 4542 1.61444e-05
309 5988 0.00266462
309 9112 1.23437e-05
309 9117 0.0179865
309 9963 0.00466309
310 323 0.964578
310 653 0.00626277
310 1859 0.00835132
310 1881 7.02834e-07
310 10158 0.00417566
310 10855 0.0145435
310 12565 0.00208782
311 30 2.05213e-06
311 322 0.345463
311 433 0.00108085
311 468 0.000360231
311 521 0.00106614
311 824 0.650226
311 1358 2.97763e-07
311 2824 0.000360078
311 4851 1.8639e-07
311 7238 0.000360238
311 10521 0.000360237
311 11072 0.000360237
311 11546 0.000360225
312 319 0.827859
312 441 0.000380702
312 1502 0.000380799
312 1750 3.47958e-07
312 1813 0.170597
312 1899 0.000380799
312 3435 1.21885e-07
312 6586 6.6726e-07
312 6971 1.90316e-05
312 14833 0.0003808
313 25 1.04074e-07
313 26 0.0146123
313 48 3.16384e-07
313 52 0.617846
313 320 0.364068
313 402 0.00295529
313 629 0.000513986
313 1373 3.18655e-07
313 2360 3.03932e-06
313 3435 1.8221e-07
314 56 1.78214e-07
314 321 0.994979
314 392 0.00083682
314 9156 0.00083682
314 14110 0.00334728
315 318 0.96875
315 1749 0.0312497
316 53 1.64218e-07
316 176 0.497342
316 324 0.500737
316 570 3.76198e-07
316 2157 3.54385e-05
316 3792 7.08744e-05
316 3833 0.00042526
316 4183 0.00024807
316 5070 0.000212631
316 8999 1.37858e-07
316 9173 0.000212631
316 10994 3.54639e-05
316 12459 6.805e-06
316 12587 3.54386e-05
316 13894 0.000318947
316 14060 0.00024807
316 14192 3.54251e-05
316 14882 3.54181e-05
317 325 0.893089
317 326 2.60439e-07
317 343 8.18851e-06
317 837 1.07121e-07
317 2612 0.0974849
317 4246 0.00941697
318 3 7.00994e-06
318 24 0.012305
318 56 4.63344e-07
318 325 0.00165991
318 326 0.960412
318 327 0.00862289
318 328 0.00877534
318 713 5.55481e-05
318 895 6.68539e-07
318 1336 0.00507774
318 7850 0.00308295
319 3 7.15249e-06
319 56 2.8562e-07
319 327 0.999993
320 3 3.6779e-06
320 24 0.982893
320 56 7.02219e-07
320 328 0.00362263
320 465 0.00182073
320 1358 0.0018066
320 3746 0.00180674
320 5242 0.00051967
320 5243 0.00210606
320 11856 0.00361318
320 12021 0.0018066
321 3 1.9946e-05
321 28 4.65084e-07
321 56 6.89756e-07
321 328 0.561419
321 903 0.00122847
321 908 0.0024558
321 923 0.00122847
321 3535 0.429962
321 3813 0.00245691
321 13623 0.00122846
322 291 0.108434
322 329 0.204819
322 330 0.216867
322 335 0.060241
322 442 0.0361446
322 486 0.0120482
322 668 0.0602408
322 685 0.0361446
322 686 0.0240964
322 848 0.0843374
322 1310 0.0120482
322 2141 0.0240964
322 2166 0.0120482
322 2308 0.0240964
322 3213 0.0240964
322 4186 0.0120482
322 4360 0.012049
322 7467 0.0240964
322 9076 0.0120482
323 53 1.10462e-07
323 331 0.977189
323 483 0.000844735
323 1321 1.29531e-06
323 1351 0.019432
323 3573 1.49958e-07
323 4360 0.00168806
323 5390 0.000844866
324 24 0.0835822
324 28 0.054038
324 34 0.00374363
324 309 0.00293894
324 332 0.00292473
324 333 0.502427
324 557 0.247507
324 600 2.37099e-07
324 698 0.0007265
324 762 0.0459591
324 873 2.66313e-07
324 1184 0.00147106
324 1338 0.000735557
324 1749 0.0014806
324 2234 7.66009e-05
324 2962 0.0398023
324 2964 3.32936e-05
324 7354 1.03867e-05
324 7393 0.0125045
324 12547 3.84431e-05
325 24 0.455424
325 332 0.45581
325 604 6.70559e-07
325 907 4.49337e-05
325 908 0.00147562
325 2694 0.000490479
325 3460 1.867e-05
325 4225 0.0367525
325 4238 0.0494926
325 6623 0.000490631
326 28 0.00100586
326 36 0.00154215
326 40 0.016921
326 56 0.623223
326 286 0.0283894
326 299 0.104008
326 343 0.00187831
326 378 0.11925
326 402 0.00272554
326 406 0.0243594
326 442 0.0118403
326 457 0.00452799
326 466 0.0191896
326 570 0.00411525
326 668 5.53513e-06
326 723 0.0348498
326 729 1.74749e-05
326 736 6.22051e-07
326 752 4.14233e-07
326 945 1.97877e-06
326 1141 3.14729e-05
326 1416 6.50402e-05
326 1437 1.97016e-07
326 1747 1.27079e-07
326 2034 0.00102896
326 2673 1.83079e-07
326 3891 4.96478e-07
326 4136 0.00102024
326 4271 2.44866e-07
327 8 0.326366
327 274 0.0713587
327 280 0.365581
327 311 0.0367203
327 336 0.0364879
327 406 0.0169739
327 453 0.00139582
327 476 0.0112593
327 553 1.60895e-06
327 666 0.013094
327 669 1.58862e-07
327 742 0.00424094
327 813 1.69237e-05
327 992 0.0113138
327 1012 0.00141537
327 1027 0.0014589
327 1077 0.000293276
327 1168 0.00141419
327 1257 0.016955
327 1480 0.0351564
327 1765 0.00990667
327 1800 0.00141419
327 2128 0.00862779
327 2225 1.17525e-07
327 2409 0.00446221
327 2794 0.00282882
327 4564 0.00282744
327 4754 0.00701776
327 4949 0.00567743
327 5964 7.67948e-05
327 11289 0.00565676
328 334 1
329 335 0.570663
329 341 0.383856
329 388 0.00296048
329 413 2.42764e-07
329 1278 0.00900381
329 1451 1.41238e-07
329 1545 2.22261e-05
329 2233 9.24774e-06
329 2415 1.126e-05
329 3378 7.23651e-06
329 7717 0.0183681
329 8755 0.000139145
329 9069 0.0119668
329 10576 0.0029917
329 10581 3.28712e-07
330 13 0.00332287
330 26 0.0777959
330 335 8.97754e-06
330 341 0.021421
330 888 0.00568147
330 1049 0.000308252
330 1347 0.0266127
330 1545 6.39348e-06
330 2233 5.31717e-06
330 2948 0.00570428
330 3101 0.0412924
330 4417 1.68813e-07
330 5636 0.209993
330 7467 0.607793
330 8755 5.34404e-05
330 9650 7.71297e-07
330 10581 1.89e-07
331 26 0.003781
331 90 0.00224527
331 337 5.80917e-07
331 378 0.0131902
331 384 0.00448852
331 402 8.03409e-05
331 505 0.00449249
331 757 7.55206e-05
331 758 0.00197169
331 850 0.951019
331 862 0.0085817
331 1008 1.78992e-07
331 1098 2.78439e-06
331 1366 1.50026e-06
331 1908 0.00566968
331 2492 0.00214453
331 3129 4.67824e-07
331 3798 2.11843e-07
331 6224 2.53411e-06
331 8233 1.79342e-07
331 8764 0.00225131
332 48 0.66535
332 56 2.7505e-07
332 280 4.12646e-07
332 336 1.54485e-06
332 337 0.264981
332 402 1.4399e-07
332 491 7.74314e-07
332 892 0.0671197
332 1251 1.30203e-07
332 2234 0.00165048
332 5064 6.42773e-05
332 8200 0.000829654
332 9653 4.15102e-07
333 273 0.0221746
333 274 0.113186
333 281 1.64386e-05
333 284 0.00163439
333 337 0.0520878
333 338 0.641897
333 364 1.47755e-07
333 503 0.0188179
333 553 0.0435651
333 1005 0.00312917
333 1216 1.70197e-06
333 1257 0.00105002
333 1276 0.0324196
333 1612 0.00517444
333 1652 4.61761e-06
333 1661 0.0442159
333 2409 0.00612318
333 3136 1.85928e-05
333 3466 0.00202094
333 4085 0.0115039
333 4335 0.000958693
334 280 0.0465662
334 337 0.0174176
334 339 0.186326
334 496 0.00624132
334 566 0.00501393
334 582 0.00502013
334 626 0.0250671
334 722 5.00834e-05
334 807 0.0401168
334 1021 0.070196
334 1030 0.00500855
334 1098 0.0100897
334 1368 0.000166483
334 1434 2.88337e-07
334 1662 0.140393
334 1717 0.00502778
334 1782 0.0050234
334 2277 0.000569245
334 4161 0.356624
334 4360 3.58283e-07
334 5203 0.0401124
334 6046 0.00501401
334 6342 1.12722e-06
334 6589 1.67478e-07
334 8394 0.0200713
334 13442 0.00486894
334 14356 2.34521e-07
334 14408 0.00501351
335 37 0.105545
335 52 0.761694
335 277 0.000863921
335 278 0.000187171
335 406 0.00760626
335 491 1.00005e-07
335 556 1.48252e-07
335 640 0.000898709
335 729 0.000349052
335 832 0.0649502
335 909 1.3132e-06
335 979 0.0343093
335 982 2.04604e-06
335 1141 0.00606911
335 1192 0.00405573
335 1214 3.45127e-06
335 1327 0.000178322
335 1707 0.000176723
335 1740 0.000349558
335 1821 0.000882295
335 1923 0.0052796
335 2169 0.00226244
335 2292 0.000173136
335 2492 0.00253663
335 2529 2.08039e-07
335 3480 3.31033e-06
335 3645 0.0010464
335 3757 6.70868e-05
335 4240 4.4443e-07
335 5072 1.59152e-07
335 5414 0.000158294
335 7849 2.47353e-07
335 9362 0.000173881
335 10750 0.000173544
335 12113 2.32823e-07
336 188 0.0428249
336 343 0.0323442
336 344 0.341747
336 345 0.433806
336 378 0.00935849
336 399 0.0589288
336 402 3.43125e-07
336 666 2.21722e-05
336 1747 5.84208e-07
336 2120 0.0214225
336 5794 0.0217023
336 6353 0.037843
337 40 0.110022
337 342 0.265105
337 386 0.0568083
337 397 0.0757443
337 398 0.113748
337 405 0.0568082
337 406 0.0568082
337 407 0.0568082
337 408 0.0568082
337 409 0.0568082
337 420 0.0568082
337 421 0.0189361
337 2415 0.0187872
338 336 0.0745093
338 346 0.551611
338 491 0.0179931
338 975 0.0714455
338 4081 5.90969e-07
338 5837 0.14222
338 8899 0.0177776
338 9453 0.124443
339 21 1.99788e-07
339 48 0.286843
339 280 0.0673422
339 336 0.00656095
339 337 0.0814353
339 347 0.219338
339 503 1.53099e-07
339 593 0.0126641
339 713 5.80939e-07
339 817 0.0099464
339 891 0.0459473
339 932 0.00982303
339 1168 0.0228502
339 1226 7.1663e-06
339 1379 0.00327313
339 1908 1.26474e-06
339 2025 1.20493e-07
339 2121 0.036117
339 2378 1.69932e-07
339 2513 8.4273e-06
339 3109 1.44571e-06
339 3311 0.0310238
339 3313 0.0981929
339 5733 0.065462
339 7855 4.45202e-07
339 11617 6.7196e-07
339 12572 3.192e-07
339 14846 0.00315963
340 348 0.250618
340 350 0.125309
340 351 0.248268
340 802 0.125188
340 1141 0.125309
340 4323 0.125308
341 40 1.13846e-07
341 432 0.000159922
341 468 5.00821e-07
341 2671 0.0175102
341 2778 1.2992e-07
341 3856 0.0569051
341 3874 0.836124
341 4651 0.00437747
341 6198 0.0265189
341 7554 0.0573033
341 14793 1.89285e-07
341 14869 0.00110034
342 21 0.01448
342 28 0.0284669
342 31 0.00132812
342 32 0.00385283
342 48 0.458657
342 56 3.86334e-05
342 280 1.34029e-07
342 333 0.284704
342 336 0.0029639
342 337 0.10275
342 405 1.15037e-07
342 468 7.39462e-05
342 476 2.78319e-07
342 491 0.000628179
342 556 0.00148334
342 626 0.000687067
342 723 0.0208012
342 851 1.80473e-06
342 891 1.22591e-06
342 892 0.0581149
342 1068 0.00342887
342 1411 1.75995e-07
342 1527 0.00514458
342 1544 0.000647013
342 1563 0.00516704
342 1638 2.2839e-07
342 1791 1.30947e-06
342 2810 0.000647214
342 4417 3.18135e-07
342 4987 0.000647016
342 5296 0.00330737
342 6219 0.00129372
342 7154 0.000646834
342 7310 5.20346e-06
342 11617 2.85074e-05
343 13 0.00114378
343 20 0.000105416
343 38 0.0248746
343 48 0.584815
343 336 0.0105312
343 337 0.318702
343 378 0.00302418
343 430 3.86441e-07
343 556 0.00873518
343 567 0.00165423
343 583 0.00140023
343 723 3.30952e-05
343 891 7.48566e-06
343 920 0.00841423
343 996 8.66932e-06
343 998 0.00334932
343 1638 0.0233324
343 1791 0.00149587
343 3596 1.06214e-07
343 4953 0.00837214
344 345 0.161317
344 349 0.127999
344 402 0.0102709
344 604 0.0237034
344 1139 0.0188531
344 1453 0.61631
344 1546 3.98965e-05
344 2525 0.00832594
344 3457 0.03318
344 7057 6.8545e-07
345 52 0.0732315
345 280 0.0316568
345 286 0.00159317
345 336 0.0103226
345 337 0.0155852
345 353 8.28174e-07
345 358 5.91398e-07
345 382 0.00892089
345 444 1.723e-07
345 491 0.00540876
345 527 0.00341889
345 634 0.0203118
345 711 0.00172326
345 723 0.036223
345 738 0.00344456
345 769 0.0138439
345 795 0.00687172
345 802 0.0275137
345 807 0.0325791
345 888 0.108526
345 895 0.0120576
345 989 0.0258406
345 996 0.271066
345 1055 0.00172242
345 1098 0.0100699
345 1143 0.0361614
345 1168 0.0534926
345 1206 0.00516377
345 1275 0.0529992
345 1281 0.0413389
345 1399 2.98119e-05
345 1517 0.0276064
345 1649 0.0490481
345 1707 6.62544e-07
345 3422 0.00861252
345 3716 3.54634e-06
345 6016 8.29233e-07
345 6261 0.00173991
345 6567 0.000154942
345 10127 0.00171345
345 11185 2.73269e-07
345 12020 3.11703e-07
345 13405 2.09897e-07
346 353 0.193772
346 382 0.0112853
346 490 0.00901205
346 522 0.0249084
346 597 0.00676411
346 760 0.00206259
346 996 3.45005e-05
346 1088 7.77238e-07
346 1275 0.0049211
346 1451 0.00451243
346 1832 0.35148
346 2713 0.247842
346 3495 3.99682e-06
346 3656 0.092382
346 6213 0.0337816
346 7479 0.00146575
346 8136 0.00675932
346 8933 0.00675934
346 11069 0.00225279
347 286 0.187501
347 350 0.187501
347 351 0.187501
347 352 0.187501
347 353 0.187496
347 5794 0.0625003
348 343 0.00284176
348 355 0.38762
348 391 0.0277523
348 399 0.0834154
348 410 0.0830617
348 411 0.0830617
348 418 0.0830617
348 419 0.0830617
348 1561 0.0553745
348 2032 0.0276872
348 14859 0.0553745
348 14861 0.0276872
349 36 0.0207338
349 275 4.52432e-07
349 336 0.00725863
349 354 0.00702543
349 522 0.0181959
349 524 0.365378
349 543 1.00405e-07
349 740 0.00351419
349 873 0.000363664
349 1324 0.00756857
349 1366 0.155472
349 1378 0.00708356
349 1392 0.29806
349 1401 0.0141522
349 1471 0.0670333
349 2116 0.0281415
349 2281 1.82567e-05
349 2695 1.59204e-07
350 16 0.00482934
350 21 0.000804354
350 359 0.00161043
350 362 0.978346
350 852 0.000793087
350 855 0.000805225
350 896 1.52239e-06
350 1175 0.00161034
350 1320 0.00161043
350 2681 0.000805225
350 2967 1.67827e-07
350 3485 0.00161043
350 3884 0.00073184
350 5167 0.00483134
350 9702 0.00161044
351 53 1.07322e-07
351 361 0.987569
351 925 0.000956018
351 1862 0.00669214
351 4539 0.00478238
352 3 0.0106943
352 359 0.968795
352 374 2.30116e-07
352 443 1.10945e-05
352 455 0.0142599
352 3776 0.000891308
352 5985 0.00267377
352 6025 0.000891254
352 6184 0.000891256
352 6302 0.000891254
353 4 0.0730455
353 28 0.0365909
353 332 0.0121772
353 333 0.0365915
353 360 0.817198
353 439 0.012197
353 853 1.95712e-06
353 1058 8.76737e-07
353 4248 0.0121964
353 5806 3.28207e-07
354 24 1
355 23 0.00131178
355 24 0.00130679
355 53 1.98445e-05
355 320 0.000226764
355 358 0.241226
355 363 0.0301753
355 364 0.19025
355 365 1.16095e-07
355 375 0.0311596
355 393 6.87839e-05
355 707 0.0249681
355 767 0.0091846
355 1075 0.0367387
355 1126 0.139082
355 1185 0.0328024
355 1249 0.0104968
355 1629 0.0118089
355 1804 0.00131196
355 1851 0.183693
355 2015 1.40577e-07
355 2033 6.7618e-06
355 2114 0.00656041
355 2591 0.0121483
355 3314 0.0118088
355 3565 4.66297e-05
355 4754 0.00262416
355 4760 0.00131173
355 5534 0.0157194
355 6930 1.71015e-06
355 6993 3.3572e-06
355 12229 0.00262416
355 14065 0.00131209
356 7 1.42689e-06
356 268 0.028669
356 365 0.143481
356 366 0.319193
356 393 0.20283
356 575 0.000673417
356 718 2.30019e-07
356 851 0.00150319
356 939 0.00150242
356 1042 0.0856381
356 1250 0.0406068
356 1629 2.09329e-07
356 1744 0.000851237
356 1746 2.64049e-07
356 1877 0.0217851
356 2105 0.0939167
356 2408 0.0518219
356 2426 0.00376287
356 2708 0.000748647
356 2713 1.54712e-06
356 5546 8.43657e-06
356 6740 0.00150242
356 12338 0.00150242
357 281 0.993012
357 591 0.00162732
357 843 0.000240973
357 861 0.00372093
357 1008 1.87676e-06
357 1648 1.97529e-07
357 2388 0.00116391
357 4362 1.02339e-07
357 10767 1.34764e-07
357 11687 0.000232527
358 188 0.429576
358 286 5.31053e-07
358 336 0.000486391
358 340 0.000348577
358 343 0.00173941
358 344 0.179124
358 378 0.00129375
358 385 0.307956
358 399 0.0269437
358 406 3.9785e-06
358 457 0.000178548
358 487 0.00389494
358 626 0.0391872
358 694 2.98672e-07
358 761 0.000319383
358 766 2.14972e-06
358 1148 1.08541e-07
358 1483 3.28208e-06
358 1744 1.02684e-07
358 1946 2.00228e-07
358 2157 0.00751289
358 2423 3.40698e-07
358 3279 1.15646e-06
358 4597 0.000886876
358 5360 1.22506e-07
358 6361 0.000166763
358 6908 2.41917e-05
358 12113 0.000346702
359 52 0.0100597
359 367 0.224182
359 388 0.196599
359 465 0.00786359
359 550 0.0353867
359 588 6.1775e-07
359 818 0.00350846
359 1086 0.0155112
359 1311 0.00346507
359 1932 0.0550566
359 2043 1.67818e-07
359 2172 0.086527
359 3180 0.00392984
359 3834 0.00393186
359 4417 0.0197711
359 4498 0.0550458
359 5712 0.228048
359 6124 0.00786369
359 6313 0.0393186
359 9870 1.73039e-07
359 10242 0.00393185
360 343 0.0388222
360 371 0.0392573
360 417 0.0785154
360 499 0.627485
360 3097 0.137402
360 8096 3.31245e-06
360 8997 0.0785154
361 188 0.000336638
361 286 0.0551552
361 372 0.0992919
361 524 0.0661933
361 713 0.0441297
361 723 0.13238
361 747 0.0661945
361 1378 0.0508842
361 1401 0.0112215
361 2517 1.28512e-07
361 3974 0.0441333
361 4597 0.04413
361 5585 0.0992919
361 9392 0.0441297
361 9516 0.0551622
361 9540 0.0441299
361 9641 0.0549198
361 9642 0.0441566
361 9643 0.0441299
361 11803 2.943e-05
362 36 0.169793
362 286 8.97208e-07
362 373 0.227152
362 496 0.0320563
362 550 0.00450125
362 837 0.00911386
362 1602 0.325539
362 2019 1.20627e-05
362 2046 0.00911907
362 2123 0.0627401
362 2275 0.109428
362 2418 0.0364821
362 3219 0.000382475
362 5159 0.0136785
362 5687 6.21136e-07
362 8271 1.03852e-06
363 48 0.0875193
363 53 0.0377279
363 280 0.0222323
363 281 0.332145
363 286 0.0360744
363 299 0.00173718
363 336 0.0779041
363 337 0.0598257
363 406 0.0319285
363 457 0.0838341
363 491 0.000904653
363 530 2.62826e-07
363 666 0.174052
363 718 0.0351049
363 752 0.00083428
363 945 1.60457e-06
363 964 0.0131968
363 979 1.85224e-05
363 1093 3.18135e-06
363 1129 1.17026e-07
363 1328 0.00168684
363 1483 1.13166e-07
363 1676 1.80273e-06
363 1791 2.21551e-06
363 2004 1.31903e-07
363 3377 0.00166335
363 3613 0.000766694
363 6219 1.5269e-07
363 7698 1.08786e-06
363 9540 0.000830543
363 12362 2.58291e-07
364 344 0.0309312
364 345 1.66839e-06
364 350 0.854781
364 370 0.0413145
364 385 0.0257364
364 399 0.0162014
364 430 4.51329e-05
364 948 0.00515036
364 978 0.00515008
364 2033 5.1339e-06
364 2769 0.0154576
364 4323 0.00522416
364 4919 9.46578e-07
365 343 0.0936483
365 370 0.409382
365 385 0.420815
365 668 8.26848e-06
365 885 0.0408856
365 2036 3.04554e-07
365 2157 0.023402
365 2379 0.000369735
365 7513 0.00583412
365 11056 0.00565426
366 32 6.03105e-05
366 48 4.24417e-05
366 52 0.303218
366 269 0.0253925
366 343 0.0902428
366 344 3.78276e-07
366 388 0.00529806
366 457 0.0106776
366 483 0.0188165
366 484 0.00750989
366 663 0.431577
366 718 0.0151021
366 723 0.00865627
366 1542 4.89273e-07
366 1545 3.15192e-07
366 1745 0.00490763
366 1791 0.00490766
366 2932 0.0490507
366 4819 0.0196302
366 6209 5.45691e-07
366 7878 0.00490801
367 368 0.0284417
367 369 0.220165
367 1235 0.0799353
367 1814 0.0139031
367 2212 0.153616
367 2901 0.00347549
367 3243 0.062557
367 5125 0.062558
367 8173 0.0625581
367 9598 0.0625581
367 9763 0.0625581
367 9764 0.0625581
367 9765 0.0625581
367 9766 0.0625581
368 18 0.000482884
368 24 0.00143439
368 26 2.15757e-07
368 36 0.000145619
368 40 0.000457151
368 41 0.000209469
368 53 0.00014643
368 268 5.2179e-05
368 326 5.01806e-05
368 374 0.995665
368 402 0.000297487
368 415 5.18129e-05
368 495 0.000150015
368 591 5.04596e-05
368 746 0.000302882
368 762 0.00010045
368 803 0.000100455
368 1727 5.01851e-05
368 1959 5.01849e-05
368 2965 4.04468e-07
368 3586 5.0187e-05
368 5053 5.01648e-05
368 5654 1.55622e-07
368 6369 5.01845e-05
368 9048 1.2134e-07
368 10139 5.01848e-05
369 52 0.00122094
369 188 0.637763
369 280 0.00440986
369 281 0.20874
369 343 0.00896756
369 344 0.0629699
369 366 0.00176304
369 376 0.0010851
369 385 0.040373
369 402 0.00030989
369 487 0.00213127
369 521 0.00033463
369 545 1.33523e-07
369 556 1.01986e-05
369 567 1.32124e-06
369 589 0.000130962
369 592 0.000335289
369 654 0.000311973
369 666 1.42191e-06
369 706 0.00708484
369 861 0.000668084
369 982 0.000491807
369 1077 1.07182e-06
369 1098 0.0188905
369 1198 0.000335453
369 1400 1.93449e-07
369 2033 0.000807651
369 3075 0.000335486
369 3311 0.000144479
369 3382 0.000335355
369 3383 1.36146e-07
369 4032 3.83871e-06
369 9853 4.03255e-05
370 40 4.4001e-07
370 52 9.27409e-06
370 376 0.48668
370 402 2.18551e-07
370 607 4.4193e-06
370 645 0.000328038
370 647 0.044838
370 843 1.82905e-07
370 1254 0.0275156
370 2130 0.43943
370 2498 0.000587795
370 7513 0.00029878
370 14475 0.000306966
371 36 0.38293
371 53 0.000641661
371 58 0.000158764
371 309 0.000164958
371 377 0.0567771
371 445 1.03807e-07
371 468 0.00280047
371 486 0.000328335
371 545 5.05562e-06
371 600 0.033027
371 601 0.000500244
371 692 0.148975
371 797 0.00016499
371 982 0.00404948
371 1078 0.0738551
371 1423 0.000273665
371 2000 0.238432
371 2107 0.0560613
371 3132 0.000835423
371 3886 9.35321e-07
371 8041 1.72703e-05
371 8876 3.77781e-07
372 300 1.05299e-07
372 343 0.0336302
372 379 0.0260266
372 415 0.00756981
372 457 2.0782e-07
372 484 5.76003e-06
372 556 4.64596e-06
372 593 0.00740439
372 723 0.000630093
372 999 0.00371795
372 1232 2.61504e-07
372 1235 0.144982
372 1516 1.29786e-06
372 1545 0.0505281
372 2130 0.00344366
372 3339 0.00743601
372 3831 0.0858193
372 4405 0.408981
372 4859 0.115258
372 5283 1.85739e-07
372 6579 4.83369e-06
372 6989 0.0153219
372 8010 0.0483342
372 8661 0.0408981
373 38 2.88147e-07
373 48 0.000154835
373 56 2.96596e-07
373 268 0.000505153
373 274 0.366812
373 280 0.00614357
373 299 0.00281329
373 336 3.46991e-07
373 338 0.00860141
373 380 0.128206
373 406 0.0101629
373 457 0.00107437
373 460 1.48437e-07
373 476 0.00160834
373 491 0.0468055
373 496 0.000542747
373 525 1.29352e-07
373 553 0.0118572
373 666 0.366462
373 723 0.000993021
373 751 0.0010761
373 979 2.81479e-06
373 1003 0.00154346
373 1020 2.99478e-07
373 1081 9.4079e-06
373 1098 1.08263e-07
373 1275 1.60477e-07
373 1481 0.00698978
373 1705 0.037061
373 3240 1.97805e-05
373 3341 0.000531145
373 3974 8.548e-06
373 4417 2.72459e-06
373 4517 1.2523e-06
373 5937 9.41665e-06
374 40 0.036152
374 56 1.12605e-07
374 274 0.00504578
374 280 0.0977208
374 336 0.0182941
374 369 0.124452
374 381 0.18855
374 430 0.00924328
374 469 0.00921859
374 496 2.68612e-07
374 526 0.106014
374 750 0.0322651
374 791 0.0691399
374 1098 2.391e-07
374 1366 5.46762e-07
374 1749 9.12199e-07
374 1802 0.0599558
374 1990 0.0460928
374 2066 2.0982e-07
374 2212 2.24898e-06
374 2243 1.03984e-06
374 2500 0.00460791
374 3480 0.018079
374 3703 0.0368748
374 4295 0.0783579
374 4524 0.0184372
374 4895 0.009218
374 7621 0.0184372
374 9533 0.00923005
374 12188 0.00460928
375 26 2.30807e-07
375 188 0.000606738
375 273 0.0444177
375 274 0.344111
375 284 0.028227
375 286 0.0922752
375 336 0.113963
375 338 0.0404157
375 354 5.88412e-07
375 492 0.00807528
375 553 0.125401
375 578 0.0565303
375 686 4.90645e-06
375 1005 0.00403766
375 1098 0.0287299
375 1475 0.00404575
375 1559 0.00403787
375 1661 0.0768715
375 2409 0.0282455
375 3135 3.11408e-06
376 26 0.974399
376 53 0.00383227
376 56 0.00203091
376 278 7.7387e-05
376 299 0.0101977
376 402 0.000469254
376 405 0.000165172
376 415 8.70927e-05
376 476 0.00624473
376 491 1.10686e-07
376 505 1.36869e-06
376 566 0.000858582
376 593 2.11954e-07
376 1251 0.000254458
376 1257 8.75083e-05
376 1436 1.00458e-07
376 1495 8.61995e-05
376 1538 0.000257655
376 3475 1.81313e-06
376 3735 8.62212e-05
376 3886 0.000430195
376 4642 8.62211e-05
376 5089 8.62212e-05
376 6674 8.62212e-05
376 10083 8.62412e-05
376 12555 8.62206e-05
377 56 0.032038
377 382 0.208644
377 387 0.0314558
377 446 0.113805
377 490 0.00637923
377 556 0.000102762
377 597 0.0189726
377 639 0.00632257
377 989 0.152467
377 1022 8.99611e-06
377 1049 0.031647
377 1098 0.0697851
377 1232 1.69055e-07
377 1239 0.0316171
377 1707 0.00632247
377 1751 2.14564e-07
377 2031 0.0253735
377 2474 0.06306
377 2525 0.0442558
377 3076 0.0378737
377 3628 4.36116e-06
377 5857 0.0123803
377 6480 0.00632289
377 6874 3.24143e-06
377 8428 0.0316124
377 8599 0.0505798
377 8764 0.0126436
377 11210 0.00632221
378 7 1.06427e-07
378 36 0.275106
378 281 7.72117e-06
378 286 0.00997935
378 343 1.33884e-06
378 383 0.0194201
378 384 0.367733
378 468 9.99461e-05
378 491 0.000445298
378 496 0.017844
378 633 0.00199453
378 706 0.00988588
378 747 1.67173e-06
378 761 1.39946e-07
378 843 1.40869e-07
378 1328 0.032434
378 1407 0.00400741
378 1597 0.0220453
378 1617 3.08872e-06
378 1664 0.00398323
378 2474 0.0214245
378 2496 0.00199481
378 3192 0.00997469
378 3339 0.0319187
378 3345 0.000386126
378 3400 0.0438787
378 4612 0.0159583
378 6081 0.0519157
378 6362 0.0515706
378 9779 0.00598439
378 11355 2.8483e-07
378 14776 3.87854e-07
379 41 8.92286e-05
379 386 0.404085
379 629 0.00217627
379 941 0.506198
379 1003 1.40154e-07
379 1450 0.00434515
379 1916 0.00434517
379 2413 0.00434486
379 2736 0.0043448
379 3510 0.00433204
379 4657 0.0635622
379 5004 3.10568e-06
379 11808 0.00217298
380 26 0.011412
380 94 0.00450234
380 367 0.0833342
380 388 0.0112581
380 389 0.0518698
380 550 6.10458e-06
380 746 0.00449724
380 1086 5.81179e-07
380 1148 0.216551
380 1451 2.24459e-07
380 1932 0.0292762
380 1940 0.257849
380 1941 0.0022527
380 2150 0.00452849
380 2282 0.150639
380 2492 0.00225201
380 3073 3.50126e-07
380 3675 0.0228971
380 3834 0.0157615
380 3933 0.0247719
380 4273 0.0675606
380 5805 0.00498805
380 7878 0.0270642
380 8126 0.00225202
380 9721 0.00447624
381 14 0.000285131
381 20 0.00228097
381 23 3.73277e-06
381 25 0.00085547
381 306 0.00028516
381 328 0.000854277
381 392 0.859137
381 690 0.000855335
381 1176 0.134301
381 4533 0.000855799
381 5666 9.73985e-07
381 14078 0.000285152
382 36 0.00137921
382 40 0.00712918
382 53 0.494246
382 56 0.00777029
382 58 0.00111924
382 320 4.02866e-06
382 395 0.0709359
382 430 0.0136562
382 448 0.00588519
382 453 0.334646
382 599 0.00820444
382 748 0.0257425
382 851 1.47437e-06
382 944 0.00171415
382 1020 0.00352033
382 1149 0.00351593
382 1331 0.000114408
382 1874 0.0122007
382 2582 0.00703339
382 2674 9.32752e-06
382 3923 0.000585921
382 3981 1.44556e-07
382 4369 0.000585719
383 53 0.0221971
383 358 0.0661817
383 379 0.0222414
383 386 0.0317932
383 448 0.0540919
383 518 0.0111215
383 519 0.410613
383 600 0.0527467
383 601 0.0553025
383 626 0.0222368
383 629 0.0222412
383 717 0.00687744
383 865 0.044487
383 938 0.0222406
383 1027 2.97676e-06
383 1786 0.0110338
383 1916 0.0333732
383 3285 0.0111216
383 3932 0.0778523
383 5108 0.0111218
383 7785 0.0111218
384 40 0.0700246
384 280 0.0427867
384 281 1.07056e-05
384 394 0.189819
384 430 0.00660009
384 491 0.02025
384 527 3.051e-05
384 723 0.00722951
384 751 0.00677756
384 752 0.0202349
384 1003 6.00263e-06
384 1049 0.0269548
384 1545 0.066816
384 2061 5.39233e-07
384 2179 0.0610517
384 2222 0.257564
384 2559 0.0339142
384 7848 0.115318
384 7960 0.0678283
384 10351 0.00678254
385 23 1.80107e-07
385 290 0.18366
385 392 1.20102e-05
385 400 0.42171
385 476 0.372886
385 566 0.011482
385 1495 0.009646
385 1898 1.30841e-07
385 5852 3.27802e-07
385 5926 0.000602875
386 7 5.25512e-07
386 48 0.00323343
386 53 9.18092e-07
386 280 0.0321607
386 286 0.0317588
386 320 0.0246138
386 336 0.0252976
386 401 0.0118189
386 402 0.0422878
386 405 0.000748026
386 413 1.86775e-06
386 415 4.8424e-07
386 418 6.66738e-06
386 452 0.000743014
386 470 0.0626133
386 483 0.000749166
386 491 0.0172326
386 527 0.0242504
386 538 4.02727e-07
386 593 0.00399817
386 613 2.1766e-07
386 646 0.280978
386 713 0.360686
386 752 4.70981e-07
386 938 0.000743204
386 1189 0.0127456
386 1585 0.0067031
386 1605 0.00349551
386 1820 1.54695e-07
386 1868 0.00393868
386 1874 9.32113e-07
386 2513 8.79751e-05
386 2921 0.00155045
386 5012 0.0460072
386 5840 0.000743014
386 5914 0.000743014
386 7039 9.63454e-07
386 7863 1.07886e-05
386 10489 4.68828e-05
386 12259 1.54114e-07
387 52 0.0135557
387 53 0.0959043
387 56 0.0639962
387 280 0.0666865
387 286 0.0715682
387 299 0.0385811
387 336 0.0551207
387 338 0.0166944
387 387 0.0325558
387 406 0.00541746
387 450 2.80551e-07
387 457 4.19263e-07
387 491 0.176994
387 505 0.0104905
387 527 0.0280314
387 600 0.0334712
387 601 0.0335045
387 651 0.00556484
387 666 0.0278869
387 746 0.00570431
387 927 0.0389309
387 944 6.64014e-06
387 949 2.21792e-05
387 964 0.00556464
387 1077 5.20942e-05
387 1160 0.000111113
387 1275 0.062265
387 1292 0.00559913
387 1381 2.56918e-07
387 1412 0.0167114
387 1481 0.0111278
387 1918 0.0611878
387 2003 0.00556587
387 2131 1.08202e-07
387 3368 0.0111246
387 3886 2.36766e-07
387 6205 3.44561e-07
387 8041 1.19561e-06
388 4 1.78015e-06
388 7 0.00130387
388 48 0.00334181
388 52 2.31019e-06
388 388 2.04643e-05
388 430 1.77103e-06
388 457 0.00226072
388 521 0.159762
388 569 0.011261
388 629 0.0261037
388 736 0.0090777
388 737 0.137398
388 764 0.00225239
388 807 0.0045049
388 1077 0.00469748
388 1102 5.1961e-05
388 1141 4.84568e-07
388 1163 4.89359e-07
388 1186 0.0091304
388 1251 0.0112748
388 1258 0.00676022
388 1278 0.00895429
388 1405 0.0045049
388 1434 0.00901882
388 1450 0.0360391
388 1594 0.0405442
388 1787 0.222955
388 1828 0.0270305
388 1874 7.3688e-06
388 2014 0.0045049
388 2124 0.000432658
388 2812 0.00450489
388 4290 0.101361
388 4300 0.0585636
388 4546 0.00675729
388 4626 0.0202721
388 4858 0.00450491
388 4954 0.015767
388 5006 0.0180196
388 5882 0.00225212
388 6413 0.00676935
388 7697 0.00901784
388 7958 0.00450488
388 9487 0.00450485
388 11361 1.03613e-06
389 413 0.031545
389 594 0.0529184
389 627 0.0315488
389 646 0.0315686
389 782 0.757645
389 879 0.031568
389 1854 0.0315685
389 1868 7.37065e-05
389 1890 0.0315642
390 35 0.0561189
390 401 0.0841929
390 402 0.11246
390 403 0.112201
390 412 0.0841846
390 413 0.0866504
390 797 2.91041e-06
390 852 0.000539836
390 1213 2.16213e-05
390 2081 0.0561231
390 2243 0.0561231
390 3947 0.0132128
390 7877 0.0559905
390 10400 0.169943
390 14562 0.112235
391 13 0.281567
391 536 0.00309723
391 1119 1.63106e-07
391 1688 2.04686e-07
391 2053 0.192508
391 2153 0.00930424
391 2208 0.000273878
391 2239 0.0247806
391 2616 0.00691332
391 2889 0.0309819
391 3376 0.0247856
391 3704 0.00384136
391 3854 0.0402767
391 5001 0.000136797
391 6943 0.0495571
391 7919 0.0092919
391 7974 0.000110058
391 8310 0.315925
391 8335 0.00648696
391 12259 7.23869e-05
391 13442 8.94962e-05
392 18 1.29038e-07
392 37 1.0562e-07
392 337 0.00700609
392 378 1.67806e-05
392 414 0.523616
392 483 0.0425151
392 668 1.97906e-07
392 850 0.0551645
392 1013 0.144073
392 1125 0.00323844
392 1745 0.00011
392 1821 0.0654221
392 3241 0.0371067
392 3594 0.00346814
392 4581 0.00327425
392 5795 0.0527046
392 5836 0.00327426
392 9641 0.0590093
393 26 0.00284063
393 378 0.000213913
393 405 2.87131e-07
393 415 0.995892
393 417 0.000204447
393 425 3.8806e-06
393 651 0.000204519
393 746 1.62968e-06
393 1152 0.000204439
393 1647 1.39697e-06
393 1782 0.000204449
393 1821 2.35511e-05
393 5208 0.000204448
394 286 1.60858e-06
394 299 0.00672147
394 415 2.32339e-07
394 416 0.636101
394 600 2.59062e-05
394 727 7.45678e-07
394 1370 0.0191607
394 2076 0.00384325
394 2077 0.23421
394 2233 0.0153292
394 2427 0.0041256
394 5553 0.00383248
394 8855 5.85837e-06
394 9081 0.00766418
394 9762 0.0689778
395 13 0.103245
395 40 1.25676e-07
395 48 4.18896e-07
395 52 0.712759
395 53 1.25358e-07
395 268 0.15642
395 402 6.31843e-05
395 982 0.00782086
395 1098 0.0196891
395 4126 5.80898e-07
395 5169 3.42277e-07
396 90 0.0195357
396 94 0.00275766
396 269 0.30594
396 283 0.407468
396 285 0.000547603
396 295 0.22774
396 336 4.30992e-07
396 388 1.15276e-06
396 677 3.35969e-07
396 679 0.036006
396 842 2.21728e-07
396 2056 1.81991e-06
396 2124 4.1705e-07
396 2199 1.76666e-07
396 2684 1.88297e-07
396 5840 1.45481e-07
397 32 0.00179992
397 280 0.0524381
397 286 1.28352e-07
397 337 0.0114878
397 378 0.0464414
397 406 0.0103888
397 408 3.0391e-07
397 415 2.86971e-07
397 425 0.0572345
397 498 0.0157111
397 556 0.697382
397 648 5.02686e-06
397 723 0.0894362
397 806 9.41787e-06
397 985 1.28161e-06
397 1538 6.9788e-07
397 1554 8.87199e-07
397 2019 1.27238e-06
397 2025 5.17463e-07
397 3107 0.0120969
397 3388 0.000377969
397 3886 1.20471e-07
397 5268 0.00172828
397 8096 0.00345655
397 10533 3.49367e-07
398 48 0.106759
398 280 0.187241
398 286 0.0837263
398 291 0.0236699
398 336 0.154876
398 406 0.0586335
398 591 1.41919e-07
398 593 0.216086
398 747 0.0798788
398 1003 0.0231686
398 1020 0.0349033
398 1188 0.0310423
398 1190 8.13127e-06
398 2745 3.92702e-06
398 11504 3.13307e-06
398 11615 1.85385e-07
399 19 5.05415e-07
399 21 0.000677338
399 274 0.00746826
399 280 0.0178233
399 286 5.65036e-07
399 380 0.00335303
399 406 0.00313181
399 415 2.17836e-06
399 425 0.00100601
399 460 0.0040532
399 476 7.17411e-07
399 491 0.318868
399 505 1.5363e-07
399 510 0.000339245
399 527 0.334421
399 556 7.69608e-06
399 582 2.44474e-05
399 593 0.262627
399 666 0.00654997
399 713 4.33769e-05
399 723 0.00804144
399 803 0.00372856
399 816 0.00174395
399 821 5.79909e-07
399 914 8.61154e-07
399 931 7.9008e-07
399 979 0.00595467
399 982 0.00076704
399 1022 0.000336021
399 1081 5.18636e-06
399 1123 0.000319761
399 1141 1.98112e-06
399 1168 2.00591e-06
399 1483 1.34556e-07
399 1516 0.000670252
399 1717 0.00397479
399 1768 0.000331657
399 1854 0.000309511
399 2003 0.00435874
399 2014 2.83269e-07
399 2122 0.000335288
399 2673 4.11983e-05
399 2691 2.4372e-05
399 2961 3.10864e-07
399 3021 0.000335278
399 3461 0.00241149
399 3565 4.88242e-07
399 4844 3.00289e-06
399 5084 0.000313005
399 5211 0.00268674
399 5321 0.00154455
399 6081 7.13434e-06
399 6829 0.00100355
399 7786 0.000334682
399 7985 1.56147e-07
399 7999 1.73954e-06
399 8876 1.77519e-07
399 9540 7.46242e-06
399 9988 7.2099e-07
400 52 1.90769e-06
400 337 0.000916855
400 358 0.0400361
400 384 0.00790995
400 448 0.00791388
400 491 0.382851
400 492 0.101944
400 527 0.0626742
400 694 0.000668332
400 706 0.048685
400 723 0.0400062
400 747 0.00791733
400 752 0.00528368
400 982 0.00785463
400 1049 0.00791145
400 1125 5.60319e-07
400 1188 0.00792244
400 1412 0.0965491
400 1436 1.02285e-06
400 1487 0.0173505
400 1649 1.9675e-06
400 3357 0.00791055
400 4531 0.00790678
400 6081 1.93048e-06
400 8393 0.13978
400 8899 5.03218e-07
401 280 0.0644964
401 404 0.152759
401 723 0.172945
401 770 0.0654609
401 944 0.0202095
401 1398 0.0872812
401 1437 2.2403e-06
401 1480 0.0218173
401 2034 0.000606675
401 2740 0.240023
401 3003 0.0871176
401 3264 3.61354e-07
401 6811 0.0436406
401 10367 0.0436405
402 280 0.111697
402 366 0.00126218
402 400 0.000311934
402 422 0.419009
402 429 0.000312112
402 460 0.000355746
402 654 0.00128842
402 668 4.36621e-07
402 897 0.00748302
402 918 0.221415
402 979 2.02814e-06
402 1082 1.19252e-07
402 1129 0.011824
402 1647 0.000935405
402 1783 2.3657e-06
402 2136 0.0376293
402 2453 0.11301
402 2799 0.0625953
402 2927 1.07934e-07
402 3120 6.49446e-07
402 3123 0.00404779
402 3297 6.27263e-07
402 3371 2.4651e-06
402 3636 0.000312847
402 4531 0.00528607
402 5078 0.000620799
402 10371 0.000310059
402 12430 4.65143e-07
402 14776 0.000283169
403 7 0.00255923
403 427 0.369791
403 428 0.49539
403 1321 0.129746
403 1749 0.000843003
403 3776 0.00166967
403 11408 8.82384e-07
404 320 0.0981554
404 358 0.130442
404 428 0.000319991
404 429 0.582217
404 693 0.0229269
404 718 2.0329e-07
404 1323 0.16482
404 1750 0.000640993
404 6352 0.000475923
404 11408 1.08526e-06
405 7 1.02376e-06
405 431 7.41699e-06
405 432 0.995099
405 604 0.00489211
406 32 0.000868662
406 374 0.0003945
406 432 0.00169235
406 433 0.994873
406 996 1.03065e-07
406 1319 1.37104e-06
406 1353 0.000216619
406 1643 1.18457e-07
406 1675 1.57025e-07
406 1981 0.000217818
406 3664 0.000217828
406 4412 0.000217853
406 5771 0.000218402
406 5933 4.24605e-05
406 9276 0.00103801
406 11636 1.24081e-07
407 13 0.0810672
407 317 4.82891e-07
407 426 0.177003
407 434 0.0703405
407 441 3.88993e-07
407 450 0.204525
407 535 0.00246262
407 733 1.06291e-05
407 813 0.00121257
407 834 0.0249895
407 837 2.71174e-07
407 1077 5.40057e-05
407 1113 0.292586
407 1159 4.3869e-07
407 1216 2.52785e-07
407 1411 0.0844012
407 1440 0.00240082
407 1821 1.03351e-07
407 1895 6.69009e-06
407 2234 4.20279e-07
407 2412 0.0461657
407 2474 2.46966e-07
407 3345 0.00362637
407 3905 0.000399399
407 4029 0.00584835
407 4091 0.00248079
407 4608 2.70652e-07
407 6586 1.40948e-07
407 9160 0.000413242
407 11147 1.88821e-06
408 320 0.000698643
408 337 0.000650369
408 431 0.658207
408 432 0.00369824
408 1090 0.000572116
408 1188 1.9125e-06
408 1259 0.188379
408 1416 0.000744558
408 1653 0.00273505
408 2590 0.070007
408 3418 0.014744
408 3544 0.058831
408 4883 1.53295e-07
408 5094 0.000730265
409 12 1.40773e-07
409 53 0.253718
409 286 2.73994e-07
409 402 0.0070122
409 408 1.88697e-06
409 415 5.10156e-05
409 425 1.19968e-07
409 430 0.632646
409 463 1.4022e-07
409 593 1.72439e-06
409 609 0.00065574
409 733 3.61897e-07
409 766 4.79865e-06
409 1014 0.0281306
409 1141 2.97707e-05
409 1188 0.0084414
409 1189 1.00574e-05
409 1613 3.23109e-07
409 1717 9.31581e-05
409 1814 1.23062e-07
409 1855 0.0656508
409 2926 0.00351705
409 7479 2.1482e-07
409 7889 1.11829e-06
409 7969 1.11861e-07
409 8116 1.50878e-06
409 8495 3.66685e-07
409 10429 2.95821e-05
409 13672 1.33723e-07
410 52 0.00178187
410 423 0.737404
410 539 0.0147233
410 566 0.000977909
410 997 0.109535
410 1082 0.00237399
410 1132 4.87806e-05
410 1135 0.00515533
410 1160 0.096399
410 1174 8.61122e-07
410 1204 0.0183613
410 1508 1.03104e-07
410 1609 1.96248e-06
410 1629 0.000481383
410 1749 1.77366e-07
410 1821 0.000773914
410 1830 0.00171174
410 3102 3.55909e-07
410 3273 0.00075225
410 3407 0.0061077
410 3420 0.000244849
410 3561 0.000471597
410 5680 2.97678e-06
410 9511 0.000244631
410 10921 0.00171147
410 11631 0.000733481
411 7 0.0124551
411 48 1.17531e-07
411 286 0.000897071
411 314 0.0251116
411 358 0.0603056
411 424 0.173711
411 426 0.000519248
411 491 0.00307706
411 492 0.229925
411 556 0.0013268
411 654 0.153491
411 797 2.30938e-07
411 1159 0.00539762
411 1229 1.82608e-07
411 1262 1.01049e-07
411 1291 0.000442347
411 1411 0.000461762
411 1440 0.000908607
411 1748 0.0242586
411 1749 0.00046233
411 1773 0.210436
411 1846 0.0122396
411 1854 0.00132603
411 1926 0.00222873
411 1972 2.4182e-06
411 2829 0.000441996
411 3120 0.0097296
411 3344 0.0566829
411 3543 0.00979578
411 4260 0.00176079
411 7567 0.00132603
411 8233 0.000835732
411 10401 0.000441709
412 48 2.76984e-07
412 53 3.02803e-07
412 280 0.0502892
412 425 0.625589
412 426 0.131465
412 457 8.60925e-06
412 510 2.09485e-07
412 556 2.80571e-06
412 587 0.00308136
412 723 0.0277146
412 834 0.0438879
412 1068 0.117089
412 1082 1.40103e-07
412 1174 0.000137152
412 1411 7.86284e-06
412 1823 0.000725946
412 6993 1.43067e-07
413 435 0.945948
413 3113 0.0270248
413 12463 0.0270271
414 358 0.000113936
414 399 0.0195998
414 406 0.0215543
414 436 0.812303
414 1021 0.0146391
414 1030 0.0146357
414 1898 0.0146391
414 2123 9.64699e-05
414 2565 0.0146395
414 2648 0.0658208
414 2649 0.0219584
414 2777 1.9978e-07
415 32 0.0307697
415 50 3.49067e-06
415 122 0.000770654
415 416 0.0323357
415 1216 0.159164
415 1399 5.93891e-06
415 1419 0.291034
415 1696 0.000935348
415 1908 0.274707
415 1919 0.145608
415 5511 0.0161678
415 12020 0.0484991
416 437 0.931824
416 3895 0.0227272
416 12464 0.0227274
416 14632 0.0227209
417 3 0.0174912
417 15 1.20518e-07
417 28 2.28081e-07
417 359 0.00636838
417 423 0.00159235
417 438 0.885445
417 455 0.0127403
417 853 0.0079595
417 940 1.80447e-07
417 1205 3.3947e-05
417 2135 0.00955071
417 3400 2.00886e-07
417 3776 0.0142273
417 5566 0.0445907
418 325 0.00583717
418 439 0.991973
418 670 0.000729929
418 1613 0.000729929
418 7409 0.000729662
419 443 0.996759
419 1860 0.000807746
419 4707 0.00243362
420 286 0.0160834
420 440 0.761261
420 466 0.0102913
420 467 0.0020579
420 495 0.1584
420 511 2.189e-06
420 749 0.0144171
420 1098 0.00411563
420 1416 0.0102871
420 1717 1.29734e-07
420 1800 0.0164572
420 4623 6.76001e-06
420 6879 0.0066202
421 441 0.773574
421 511 1.79863e-06
421 512 0.172142
421 652 5.34493e-07
421 736 4.09547e-07
421 907 1.3996e-05
421 1950 0.054265
421 2063 2.25152e-07
421 8978 2.01081e-06
422 7 0.0137362
422 48 0.291325
422 53 0.305957
422 354 0.000761467
422 367 2.48222e-06
422 387 0.0487911
422 444 0.00229254
422 494 0.00229804
422 505 0.000766922
422 634 0.00323041
422 746 0.00402633
422 760 0.000766396
422 1009 0.274636
422 1049 0.0123009
422 1102 0.00618296
422 1213 0.013773
422 1252 2.94529e-07
422 1707 6.13226e-06
422 3672 2.8994e-06
422 3974 0.0191445
423 56 2.48689e-07
423 268 0.0894703
423 353 0.000283183
423 358 2.28876e-07
423 382 0.325651
423 384 2.03032e-05
423 446 0.170793
423 447 1.70102e-05
423 490 0.251612
423 522 0.000310604
423 566 0.00171136
423 597 0.0031208
423 723 0.000808985
423 807 0.00730243
423 895 6.81216e-05
423 911 0.0388707
423 989 0.0445276
423 993 0.000287962
423 996 0.0133763
423 1070 0.000336781
423 1102 0.000283669
423 1132 0.000251889
423 1141 2.41155e-07
423 1214 1.04942e-07
423 1273 1.27119e-07
423 1300 0.00340415
423 1399 0.0124815
423 1460 9.81923e-05
423 1494 4.83255e-07
423 1514 7.84589e-06
423 1534 0.00111531
423 2796 0.0124848
423 2922 0.00198616
423 3628 0.00170225
423 4056 0.00256347
423 5964 1.04596e-06
423 6324 0.00198573
423 6480 0.0065132
423 7455 0.00170868
423 7900 0.00170028
423 9221 0.00226897
423 9598 0.000283709
423 9889 0.000587485
423 11182 2.76392e-07
424 280 1.34709e-05
424 382 0.00201631
424 400 0.000400799
424 447 0.0641293
424 490 0.000808177
424 629 0.00120249
424 764 1.50981e-06
424 976 0.393194
424 993 0.104611
424 1008 9.81194e-06
424 1399 0.00240489
424 1724 0.38638
424 1763 0.00921861
424 2999 0.0164548
424 4379 0.016011
424 5511 0.000400802
424 9229 0.00160317
424 11179 0.00113863
425 11 4.903e-07
425 34 0.0959212
425 48 5.59617e-05
425 52 9.31971e-06
425 296 0.019264
425 337 0.0169314
425 449 0.0150729
425 450 0.0173803
425 598 0.141278
425 632 0.130347
425 668 1.22362e-07
425 1241 0.00749174
425 1686 1.62325e-07
425 1708 0.0119757
425 1739 0.000111815
425 1744 3.56949e-07
425 1854 0.176382
425 2412 7.25676e-07
425 2766 0.0471377
425 2809 0.214968
425 2948 0.0535125
425 3179 0.0446542
425 6210 7.74936e-07
425 6865 0.00106881
425 8271 0.0064346
426 425 0.000514351
426 451 0.917089
426 556 0.000513521
426 717 7.79388e-06
426 774 2.3358e-05
426 1194 0.000137401
426 2397 0.081714
427 449 0.0315251
427 452 0.349823
427 464 9.03447e-07
427 591 0.0315772
427 626 0.000807988
427 1554 0.581641
427 1987 2.20341e-07
427 3109 0.00455238
427 3510 6.88762e-05
427 5404 8.70183e-07
427 7850 2.3097e-06
428 358 0.000340959
428 384 8.27506e-06
428 409 7.03027e-07
428 415 0.000449893
428 448 0.0713125
428 449 1.81356e-06
428 457 1.43648e-07
428 495 1.10625e-07
428 552 0.0281048
428 604 0.000451447
428 634 0.000478799
428 718 0.000562407
428 722 0.0163562
428 746 0.494451
428 790 3.24027e-05
428 813 0.128521
428 848 1.19067e-07
428 979 1.20896e-05
428 1021 0.002255
428 1077 0.000319697
428 1104 2.7703e-07
428 1159 0.169014
428 1213 1.28986e-05
428 1275 2.17693e-07
428 1293 0.0143401
428 1311 0.0113121
428 1327 1.04169e-06
428 1436 1.0435e-06
428 1747 0.00159783
428 1890 3.62925e-07
428 2025 0.013536
428 2199 0.013986
428 2474 1.3813e-07
428 2486 0.0288625
428 2529 0.000449327
428 2965 3.79013e-07
428 2994 0.00139651
428 3129 0.000897856
428 3390 4.28436e-07
428 3497 1.02306e-07
428 3510 2.16169e-07
428 3886 4.25032e-06
428 5268 3.37713e-06
428 6150 0.000451161
428 6209 1.85312e-05
428 7705 6.46202e-07
428 8978 1.70323e-07
428 12595 0.000451164
429 11 0.0215354
429 21 0.00358803
429 268 0.000782833
429 281 3.04665e-07
429 284 0.000723307
429 299 0.000716173
429 388 1.35035e-06
429 444 0.215934
429 457 1.65791e-07
429 465 0.153454
429 534 0.0244116
429 537 0.185876
429 570 0.000818469
429 634 0.0440859
429 723 2.11285e-07
429 737 2.10724e-07
429 760 0.00716722
429 897 1.51732e-07
429 945 2.0104e-06
429 983 1.26127e-05
429 994 0.0114464
429 1070 0.0150594
429 1079 0.0014351
429 1088 0.005039
429 1102 0.208777
429 1132 0.00852391
429 1199 0.00148152
429 1416 0.00324858
429 1688 0.00722
429 2031 0.00435454
429 3145 0.0021529
429 3289 0.0208134
429 3672 1.94589e-06
429 4562 0.0136355
429 5351 0.0172342
429 5511 5.30027e-07
429 5851 0.00215068
429 6195 0.00923244
429 6361 6.28091e-07
429 6830 0.00530041
429 8358 0.00162316
429 8428 5.46524e-06
429 13183 0.00215295
430 53 0.00316437
430 352 8.43231e-07
430 445 0.63848
430 589 0.0728564
430 607 0.00649163
430 628 0.0987899
430 715 0.000193342
430 719 0.000773395
430 981 1.2619e-06
430 1147 0.00019301
430 1265 0.144217
430 1631 0.00254745
430 1647 9.32842e-06
430 1784 0.00195404
430 2069 8.45386e-07
430 2120 0.0196747
430 2947 0.000781612
430 3501 0.00791616
430 4090 0.0003867
430 4463 0.00116423
430 9685 0.000342896
430 11182 6.03933e-05
431 53 0.46215
431 58 0.00342429
431 188 0.000645875
431 395 0.0415488
431 453 0.360659
431 457 1.1415e-06
431 599 1.13519e-07
431 748 0.0244364
431 982 8.03099e-07
431 1030 0.00433268
431 1032 0.00637023
431 1105 1.43664e-05
431 1256 3.34213e-07
431 1329 0.00262526
431 1331 0.00998017
431 1364 5.15696e-07
431 1874 0.0734369
431 2582 0.00605511
431 2819 0.0025878
431 8863 0.00173012
432 320 0.333105
432 427 0.233587
432 455 0.000689503
432 655 0.331029
432 1321 0.0995162
432 1750 0.0013821
432 7275 0.000691085
432 9494 2.33259e-07
433 7 0.000653465
433 8 0.528128
433 32 0.00249707
433 40 0.0573985
433 280 0.00298784
433 281 0.170113
433 299 0.000561335
433 343 0.00550144
433 358 0.0160385
433 366 0.000540667
433 378 0.00766487
433 402 0.00503379
433 415 7.38403e-07
433 567 0.0354797
433 571 0.00616596
433 589 2.25457e-05
433 644 0.00232375
433 654 1.81918e-06
433 773 0.0298389
433 795 0.00169925
433 843 0.00168036
433 861 0.00110271
433 896 0.0012343
433 1098 0.0389934
433 1203 2.32065e-07
433 1579 0.000571489
433 1823 7.57519e-06
433 2986 0.000567275
433 3076 0.000489831
433 5005 0.0821377
433 10333 4.65099e-07
433 10686 3.74411e-07
433 13710 0.000562172
433 14351 2.79383e-07
434 56 1.84046e-05
434 188 0.497954
434 456 0.479189
434 582 0.00022646
434 590 0.0171631
434 626 0.00203835
434 654 8.35467e-07
